// original svg: https://raw.githubusercontent.com/raddrick/risk-map-svg/master/risk.svg
package Gui;


import java.awt.AlphaComposite;
import java.awt.Composite;
import java.awt.Graphics2D;
import java.awt.Shape;
import java.awt.geom.AffineTransform;
import java.awt.geom.GeneralPath;
import java.util.ArrayList;

import Control.Control;

/**
 * This class has been automatically generated using
 * <a href="http://ebourg.github.io/flamingo-svg-transcoder/">Flamingo SVG transcoder</a>.
 */
public class Map {

    /**
     * Paints the transcoded SVG image on the specified graphics context. You
     * can install a custom transformation on the graphics context to scale the
     * image.
     * 
     * @param g Graphics context.
     */
	
    private static ArrayList<Territory> Territories = new ArrayList<Territory>();
	
    public ArrayList<Territory> getTerritories() {
		return Territories;
	}

	public static void create(Graphics2D g) {
        Shape shape = null;
        
        float origAlpha = 1.0f;
        Composite origComposite = g.getComposite();
        if (origComposite instanceof AlphaComposite) {
            AlphaComposite origAlphaComposite = (AlphaComposite)origComposite;
            if (origAlphaComposite.getRule() == AlphaComposite.SRC_OVER) {
                origAlpha = origAlphaComposite.getAlpha();
            }
        }
        
        java.util.LinkedList<AffineTransform> transformations = new java.util.LinkedList<AffineTransform>();
        

        // territoryList.add(new Territory(name, continent, shape)); 

        // _0
      

        // _0_1

        // _0_1_1

        // _0_1_1_0
        shape = new GeneralPath();
        ((GeneralPath) shape).moveTo(532.0, 514.0);
        ((GeneralPath) shape).curveTo(531.0, 508.0, 531.0, 502.0, 530.0, 497.0);
        ((GeneralPath) shape).curveTo(535.0, 496.0, 536.0, 489.0, 537.0, 485.0);
        ((GeneralPath) shape).curveTo(538.0, 485.0, 539.0, 485.0, 541.0, 485.0);
        ((GeneralPath) shape).curveTo(542.0, 477.0, 552.0, 477.0, 551.0, 466.0);
        ((GeneralPath) shape).curveTo(546.0, 465.0, 541.0, 464.0, 535.0, 464.0);
        ((GeneralPath) shape).curveTo(535.0, 462.0, 534.0, 460.0, 533.0, 458.0);
        ((GeneralPath) shape).curveTo(533.0, 459.0, 532.0, 460.0, 531.0, 461.0);
        ((GeneralPath) shape).curveTo(524.0, 451.0, 519.0, 443.0, 515.0, 432.0);
        ((GeneralPath) shape).curveTo(514.0, 418.0, 517.0, 408.0, 519.0, 395.0);
        ((GeneralPath) shape).curveTo(519.0, 394.0, 519.0, 392.0, 519.0, 391.0);
        ((GeneralPath) shape).curveTo(520.0, 391.0, 521.0, 391.0, 523.0, 391.0);
        ((GeneralPath) shape).curveTo(522.0, 388.0, 522.0, 388.0, 524.0, 382.0);
        ((GeneralPath) shape).curveTo(535.0, 382.0, 546.0, 382.0, 557.0, 382.0);
        ((GeneralPath) shape).curveTo(559.0, 379.0, 559.0, 379.0, 562.0, 378.0);
        ((GeneralPath) shape).curveTo(569.0, 389.0, 571.0, 404.0, 576.0, 416.0);
        ((GeneralPath) shape).curveTo(577.0, 417.0, 578.0, 417.0, 579.0, 417.0);
        ((GeneralPath) shape).curveTo(581.0, 422.0, 582.0, 426.0, 584.0, 431.0);
        ((GeneralPath) shape).curveTo(583.0, 431.0, 582.0, 431.0, 581.0, 431.0);
        ((GeneralPath) shape).curveTo(590.0, 437.0, 602.0, 432.0, 611.0, 430.0);
        ((GeneralPath) shape).curveTo(611.0, 430.0, 611.0, 431.0, 612.0, 432.0);
        ((GeneralPath) shape).curveTo(608.0, 444.0, 603.0, 455.0, 596.0, 466.0);
        ((GeneralPath) shape).curveTo(581.0, 478.0, 574.0, 491.0, 563.0, 505.0);
        ((GeneralPath) shape).curveTo(563.0, 512.0, 563.0, 519.0, 564.0, 526.0);
        ((GeneralPath) shape).curveTo(558.0, 527.0, 553.0, 528.0, 548.0, 530.0);
        ((GeneralPath) shape).curveTo(546.0, 536.0, 546.0, 546.0, 546.0, 548.0);
        ((GeneralPath) shape).curveTo(544.0, 547.0, 543.0, 547.0, 541.0, 547.0);
        ((GeneralPath) shape).curveTo(541.0, 540.0, 541.0, 532.0, 541.0, 524.0);
        ((GeneralPath) shape).curveTo(539.0, 521.0, 536.0, 517.0, 534.0, 514.0);
        ((GeneralPath) shape).curveTo(533.0, 514.0, 532.0, 514.0, 532.0, 514.0);
        ((GeneralPath) shape).closePath();

        //g.setPaint(new Color(0xCEA252));
        String continent = "africa";
        String name = "East Africa";
        //g.fill(shape); 
        Territories.add(new Territory(name, continent, shape));
        //g.setPaint(new Color(0xC68A31));
        //g.setStroke(new BasicStroke(1.5f, 0, 0, 4));
        //g.draw(shape);

        // _0_1_1_1
        shape = new GeneralPath();
        ((GeneralPath) shape).moveTo(484.0, 328.0);
        ((GeneralPath) shape).curveTo(492.0, 330.0, 499.0, 338.0, 507.0, 337.0);
        ((GeneralPath) shape).curveTo(507.0, 333.0, 507.0, 333.0, 508.0, 330.0);
        ((GeneralPath) shape).curveTo(520.0, 327.0, 532.0, 334.0, 543.0, 338.0);
        ((GeneralPath) shape).curveTo(548.0, 338.0, 552.0, 338.0, 557.0, 338.0);
        ((GeneralPath) shape).curveTo(558.0, 343.0, 560.0, 348.0, 561.0, 353.0);
        ((GeneralPath) shape).curveTo(559.0, 353.0, 557.0, 352.0, 555.0, 352.0);
        ((GeneralPath) shape).curveTo(557.0, 361.0, 560.0, 369.0, 562.0, 378.0);
        ((GeneralPath) shape).curveTo(559.0, 379.0, 559.0, 379.0, 557.0, 382.0);
        ((GeneralPath) shape).curveTo(546.0, 382.0, 535.0, 382.0, 524.0, 382.0);
        ((GeneralPath) shape).curveTo(522.0, 388.0, 522.0, 388.0, 523.0, 391.0);
        ((GeneralPath) shape).curveTo(521.0, 391.0, 520.0, 391.0, 519.0, 391.0);
        ((GeneralPath) shape).curveTo(519.0, 392.0, 519.0, 394.0, 519.0, 395.0);
        ((GeneralPath) shape).curveTo(512.0, 393.0, 511.0, 388.0, 504.0, 386.0);
        ((GeneralPath) shape).curveTo(504.0, 384.0, 503.0, 382.0, 502.0, 380.0);
        ((GeneralPath) shape).curveTo(490.0, 378.0, 483.0, 377.0, 474.0, 369.0);
        ((GeneralPath) shape).curveTo(473.0, 358.0, 474.0, 350.0, 473.0, 340.0);
        ((GeneralPath) shape).curveTo(474.0, 339.0, 475.0, 339.0, 475.0, 338.0);
        ((GeneralPath) shape).curveTo(476.0, 336.0, 476.0, 334.0, 476.0, 331.0);
        ((GeneralPath) shape).curveTo(480.0, 328.0, 480.0, 328.0, 484.0, 328.0);
        ((GeneralPath) shape).closePath();

        //g.setPaint(new Color(0xCEA252));
        continent = "africa";
        name = "Egypt";
        //g.fill(shape); 
        Territories.add(new Territory(name, continent, shape));
        //g.setPaint(new Color(0xC68A31));
        //g.draw(shape);

        // _0_1_1_2
        shape = new GeneralPath();
        ((GeneralPath) shape).moveTo(473.0, 502.0);
        ((GeneralPath) shape).curveTo(468.0, 496.0, 462.0, 490.0, 462.0, 482.0);
        ((GeneralPath) shape).curveTo(466.0, 479.0, 466.0, 478.0, 468.0, 473.0);
        ((GeneralPath) shape).curveTo(470.0, 473.0, 472.0, 473.0, 474.0, 473.0);
        ((GeneralPath) shape).curveTo(474.0, 472.0, 474.0, 471.0, 474.0, 470.0);
        ((GeneralPath) shape).curveTo(483.0, 472.0, 483.0, 472.0, 487.0, 472.0);
        ((GeneralPath) shape).curveTo(488.0, 464.0, 489.0, 459.0, 487.0, 452.0);
        ((GeneralPath) shape).curveTo(491.0, 450.0, 492.0, 447.0, 497.0, 445.0);
        ((GeneralPath) shape).curveTo(498.0, 444.0, 498.0, 443.0, 498.0, 441.0);
        ((GeneralPath) shape).curveTo(505.0, 440.0, 509.0, 436.0, 515.0, 432.0);
        ((GeneralPath) shape).curveTo(519.0, 443.0, 524.0, 451.0, 531.0, 461.0);
        ((GeneralPath) shape).curveTo(532.0, 460.0, 533.0, 459.0, 533.0, 458.0);
        ((GeneralPath) shape).curveTo(534.0, 460.0, 535.0, 462.0, 535.0, 464.0);
        ((GeneralPath) shape).curveTo(541.0, 464.0, 546.0, 465.0, 551.0, 466.0);
        ((GeneralPath) shape).curveTo(552.0, 477.0, 542.0, 477.0, 541.0, 485.0);
        ((GeneralPath) shape).curveTo(539.0, 485.0, 538.0, 485.0, 537.0, 485.0);
        ((GeneralPath) shape).curveTo(536.0, 489.0, 535.0, 496.0, 530.0, 497.0);
        ((GeneralPath) shape).curveTo(531.0, 502.0, 531.0, 508.0, 532.0, 514.0);
        ((GeneralPath) shape).curveTo(531.0, 516.0, 530.0, 517.0, 529.0, 519.0);
        ((GeneralPath) shape).curveTo(528.0, 519.0, 527.0, 519.0, 526.0, 519.0);
        ((GeneralPath) shape).curveTo(527.0, 524.0, 527.0, 530.0, 528.0, 535.0);
        ((GeneralPath) shape).curveTo(526.0, 535.0, 525.0, 535.0, 524.0, 535.0);
        ((GeneralPath) shape).curveTo(524.0, 534.0, 524.0, 532.0, 524.0, 531.0);
        ((GeneralPath) shape).curveTo(501.0, 526.0, 509.0, 529.0, 503.0, 511.0);
        ((GeneralPath) shape).curveTo(501.0, 511.0, 499.0, 510.0, 497.0, 510.0);
        ((GeneralPath) shape).curveTo(497.0, 511.0, 496.0, 512.0, 496.0, 513.0);
        ((GeneralPath) shape).curveTo(495.0, 513.0, 493.0, 513.0, 492.0, 514.0);
        ((GeneralPath) shape).curveTo(491.0, 510.0, 491.0, 510.0, 488.0, 505.0);
        ((GeneralPath) shape).curveTo(480.0, 504.0, 479.0, 503.0, 473.0, 502.0);
        ((GeneralPath) shape).closePath();

        //g.setPaint(new Color(0xCEA252));
        continent = "africa";
        name = "Congo";
        //g.fill(shape); 
        Territories.add(new Territory(name, continent, shape));
        //g.setPaint(new Color(0xC68A31));
        //g.draw(shape);

        // _0_1_1_3
        shape = new GeneralPath();
        ((GeneralPath) shape).moveTo(579.0, 589.0);
        ((GeneralPath) shape).curveTo(574.0, 583.0, 575.0, 574.0, 578.0, 567.0);
        ((GeneralPath) shape).curveTo(578.0, 567.0, 579.0, 567.0, 580.0, 567.0);
        ((GeneralPath) shape).curveTo(582.0, 552.0, 581.0, 551.0, 594.0, 546.0);
        ((GeneralPath) shape).curveTo(600.0, 541.0, 600.0, 541.0, 601.0, 538.0);
        ((GeneralPath) shape).curveTo(602.0, 538.0, 603.0, 538.0, 604.0, 538.0);
        ((GeneralPath) shape).curveTo(604.0, 543.0, 604.0, 549.0, 604.0, 555.0);
        ((GeneralPath) shape).curveTo(604.0, 555.0, 603.0, 555.0, 602.0, 555.0);
        ((GeneralPath) shape).curveTo(602.0, 556.0, 602.0, 557.0, 602.0, 559.0);
        ((GeneralPath) shape).curveTo(601.0, 559.0, 600.0, 559.0, 599.0, 559.0);
        ((GeneralPath) shape).curveTo(598.0, 570.0, 590.0, 585.0, 579.0, 589.0);
        ((GeneralPath) shape).closePath();

        //g.setPaint(new Color(0xCEA252));
        continent = "africa";
        name = "Madagascar";
        //g.fill(shape); 
        Territories.add(new Territory(name, continent, shape));
        //g.setPaint(new Color(0xC68A31));
        //g.draw(shape);

        // _0_1_1_4
        shape = new GeneralPath();
        ((GeneralPath) shape).moveTo(473.0, 502.0);
        ((GeneralPath) shape).curveTo(479.0, 503.0, 480.0, 504.0, 488.0, 505.0);
        ((GeneralPath) shape).curveTo(491.0, 510.0, 491.0, 510.0, 492.0, 514.0);
        ((GeneralPath) shape).curveTo(493.0, 513.0, 495.0, 513.0, 496.0, 513.0);
        ((GeneralPath) shape).curveTo(496.0, 512.0, 497.0, 511.0, 497.0, 510.0);
        ((GeneralPath) shape).curveTo(499.0, 510.0, 501.0, 511.0, 503.0, 511.0);
        ((GeneralPath) shape).curveTo(509.0, 529.0, 501.0, 526.0, 524.0, 531.0);
        ((GeneralPath) shape).curveTo(524.0, 532.0, 524.0, 534.0, 524.0, 535.0);
        ((GeneralPath) shape).curveTo(525.0, 535.0, 526.0, 535.0, 528.0, 535.0);
        ((GeneralPath) shape).curveTo(527.0, 530.0, 527.0, 524.0, 526.0, 519.0);
        ((GeneralPath) shape).curveTo(527.0, 519.0, 528.0, 519.0, 529.0, 519.0);
        ((GeneralPath) shape).curveTo(530.0, 517.0, 531.0, 516.0, 532.0, 514.0);
        ((GeneralPath) shape).curveTo(532.0, 514.0, 533.0, 514.0, 534.0, 514.0);
        ((GeneralPath) shape).curveTo(536.0, 517.0, 539.0, 521.0, 541.0, 524.0);
        ((GeneralPath) shape).curveTo(541.0, 532.0, 541.0, 540.0, 541.0, 547.0);
        ((GeneralPath) shape).curveTo(543.0, 547.0, 544.0, 547.0, 546.0, 548.0);
        ((GeneralPath) shape).curveTo(546.0, 546.0, 546.0, 536.0, 548.0, 530.0);
        ((GeneralPath) shape).curveTo(553.0, 528.0, 558.0, 527.0, 564.0, 526.0);
        ((GeneralPath) shape).curveTo(564.0, 539.0, 566.0, 555.0, 551.0, 559.0);
        ((GeneralPath) shape).curveTo(550.0, 561.0, 550.0, 561.0, 545.0, 566.0);
        ((GeneralPath) shape).curveTo(544.0, 575.0, 545.0, 585.0, 535.0, 588.0);
        ((GeneralPath) shape).curveTo(533.0, 601.0, 533.0, 601.0, 532.0, 606.0);
        ((GeneralPath) shape).curveTo(531.0, 606.0, 530.0, 606.0, 529.0, 606.0);
        ((GeneralPath) shape).curveTo(529.0, 607.0, 529.0, 608.0, 529.0, 609.0);
        ((GeneralPath) shape).curveTo(528.0, 609.0, 527.0, 609.0, 526.0, 609.0);
        ((GeneralPath) shape).curveTo(519.0, 627.0, 506.0, 627.0, 487.0, 631.0);
        ((GeneralPath) shape).curveTo(485.0, 630.0, 483.0, 629.0, 482.0, 629.0);
        ((GeneralPath) shape).curveTo(482.0, 627.0, 482.0, 626.0, 482.0, 625.0);
        ((GeneralPath) shape).curveTo(482.0, 625.0, 483.0, 625.0, 484.0, 625.0);
        ((GeneralPath) shape).curveTo(484.0, 615.0, 483.0, 610.0, 478.0, 601.0);
        ((GeneralPath) shape).curveTo(477.0, 592.0, 476.0, 589.0, 473.0, 571.0);
        ((GeneralPath) shape).curveTo(469.0, 560.0, 465.0, 550.0, 471.0, 540.0);
        ((GeneralPath) shape).curveTo(472.0, 540.0, 474.0, 539.0, 475.0, 539.0);
        ((GeneralPath) shape).curveTo(475.0, 531.0, 474.0, 523.0, 474.0, 515.0);
        ((GeneralPath) shape).curveTo(475.0, 515.0, 476.0, 514.0, 477.0, 514.0);
        ((GeneralPath) shape).curveTo(477.0, 511.0, 477.0, 507.0, 476.0, 503.0);
        ((GeneralPath) shape).curveTo(475.0, 503.0, 474.0, 503.0, 473.0, 503.0);
        ((GeneralPath) shape).curveTo(473.0, 503.0, 473.0, 502.0, 473.0, 502.0);
        ((GeneralPath) shape).closePath();

        //g.setPaint(new Color(0xCEA252));
        continent = "africa";
        name = "South Africa";
        //g.fill(shape); 
        Territories.add(new Territory(name, continent, shape));
        //g.setPaint(new Color(0xC68A31));
        //g.draw(shape);

        // _0_1_1_5
        shape = new GeneralPath();
        ((GeneralPath) shape).moveTo(468.0, 473.0);
        ((GeneralPath) shape).curveTo(467.0, 469.0, 467.0, 467.0, 468.0, 463.0);
        ((GeneralPath) shape).curveTo(461.0, 460.0, 461.0, 460.0, 455.0, 460.0);
        ((GeneralPath) shape).curveTo(453.0, 454.0, 453.0, 454.0, 451.0, 453.0);
        ((GeneralPath) shape).curveTo(446.0, 453.0, 442.0, 454.0, 437.0, 454.0);
        ((GeneralPath) shape).curveTo(437.0, 455.0, 437.0, 456.0, 437.0, 457.0);
        ((GeneralPath) shape).curveTo(421.0, 456.0, 412.0, 464.0, 401.0, 449.0);
        ((GeneralPath) shape).curveTo(395.0, 447.0, 391.0, 433.0, 389.0, 427.0);
        ((GeneralPath) shape).curveTo(389.0, 427.0, 388.0, 427.0, 387.0, 427.0);
        ((GeneralPath) shape).curveTo(387.0, 426.0, 387.0, 425.0, 387.0, 424.0);
        ((GeneralPath) shape).curveTo(386.0, 424.0, 385.0, 424.0, 384.0, 424.0);
        ((GeneralPath) shape).curveTo(382.0, 415.0, 382.0, 408.0, 385.0, 399.0);
        ((GeneralPath) shape).curveTo(385.0, 390.0, 384.0, 380.0, 387.0, 371.0);
        ((GeneralPath) shape).curveTo(392.0, 370.0, 395.0, 356.0, 397.0, 351.0);
        ((GeneralPath) shape).curveTo(410.0, 345.0, 410.0, 341.0, 414.0, 326.0);
        ((GeneralPath) shape).curveTo(421.0, 322.0, 423.0, 319.0, 428.0, 312.0);
        ((GeneralPath) shape).curveTo(428.0, 312.0, 429.0, 312.0, 429.0, 312.0);
        ((GeneralPath) shape).curveTo(436.0, 317.0, 445.0, 311.0, 452.0, 308.0);
        ((GeneralPath) shape).curveTo(459.0, 308.0, 462.0, 307.0, 480.0, 306.0);
        ((GeneralPath) shape).curveTo(480.0, 308.0, 480.0, 309.0, 480.0, 310.0);
        ((GeneralPath) shape).curveTo(479.0, 311.0, 479.0, 311.0, 478.0, 311.0);
        ((GeneralPath) shape).curveTo(480.0, 314.0, 479.0, 317.0, 479.0, 321.0);
        ((GeneralPath) shape).curveTo(478.0, 321.0, 476.0, 321.0, 475.0, 321.0);
        ((GeneralPath) shape).curveTo(475.0, 322.0, 475.0, 322.0, 478.0, 322.0);
        ((GeneralPath) shape).curveTo(478.0, 323.0, 478.0, 324.0, 478.0, 325.0);
        ((GeneralPath) shape).curveTo(480.0, 326.0, 482.0, 327.0, 484.0, 328.0);
        ((GeneralPath) shape).curveTo(480.0, 328.0, 480.0, 328.0, 476.0, 331.0);
        ((GeneralPath) shape).curveTo(476.0, 334.0, 476.0, 336.0, 475.0, 338.0);
        ((GeneralPath) shape).curveTo(475.0, 339.0, 474.0, 339.0, 473.0, 340.0);
        ((GeneralPath) shape).curveTo(474.0, 350.0, 473.0, 358.0, 474.0, 369.0);
        ((GeneralPath) shape).curveTo(483.0, 377.0, 490.0, 378.0, 502.0, 380.0);
        ((GeneralPath) shape).curveTo(503.0, 382.0, 504.0, 384.0, 504.0, 386.0);
        ((GeneralPath) shape).curveTo(511.0, 388.0, 512.0, 393.0, 519.0, 395.0);
        ((GeneralPath) shape).curveTo(517.0, 408.0, 514.0, 418.0, 515.0, 432.0);
        ((GeneralPath) shape).curveTo(509.0, 436.0, 505.0, 440.0, 498.0, 441.0);
        ((GeneralPath) shape).curveTo(498.0, 443.0, 498.0, 444.0, 497.0, 445.0);
        ((GeneralPath) shape).curveTo(492.0, 447.0, 491.0, 450.0, 487.0, 452.0);
        ((GeneralPath) shape).curveTo(489.0, 459.0, 488.0, 464.0, 487.0, 472.0);
        ((GeneralPath) shape).curveTo(483.0, 472.0, 483.0, 472.0, 474.0, 470.0);
        ((GeneralPath) shape).curveTo(474.0, 471.0, 474.0, 472.0, 474.0, 473.0);
        ((GeneralPath) shape).curveTo(472.0, 473.0, 470.0, 473.0, 468.0, 473.0);
        ((GeneralPath) shape).closePath();

        //g.setPaint(new Color(0xCEA252));
        continent = "africa";
        name = "North Africa";
        //g.fill(shape); 
        Territories.add(new Territory(name, continent, shape));
        //g.setPaint(new Color(0xC68A31));
        //g.draw(shape);

        // _0_1_2

        // _0_1_2_0
        shape = new GeneralPath();
        ((GeneralPath) shape).moveTo(651.0, 310.0);
        ((GeneralPath) shape).curveTo(648.0, 306.0, 647.0, 305.0, 643.0, 303.0);
        ((GeneralPath) shape).curveTo(640.0, 295.0, 633.0, 299.0, 626.0, 300.0);
        ((GeneralPath) shape).curveTo(626.0, 297.0, 626.0, 295.0, 625.0, 293.0);
        ((GeneralPath) shape).curveTo(624.0, 293.0, 623.0, 292.0, 622.0, 292.0);
        ((GeneralPath) shape).curveTo(622.0, 289.0, 622.0, 287.0, 622.0, 284.0);
        ((GeneralPath) shape).curveTo(623.0, 284.0, 624.0, 283.0, 625.0, 283.0);
        ((GeneralPath) shape).curveTo(625.0, 280.0, 625.0, 277.0, 625.0, 273.0);
        ((GeneralPath) shape).curveTo(624.0, 273.0, 623.0, 273.0, 622.0, 273.0);
        ((GeneralPath) shape).curveTo(623.0, 277.0, 623.0, 277.0, 622.0, 280.0);
        ((GeneralPath) shape).curveTo(620.0, 279.0, 620.0, 279.0, 620.0, 271.0);
        ((GeneralPath) shape).curveTo(618.0, 270.0, 616.0, 269.0, 613.0, 268.0);
        ((GeneralPath) shape).curveTo(614.0, 262.0, 615.0, 261.0, 618.0, 256.0);
        ((GeneralPath) shape).curveTo(618.0, 257.0, 618.0, 258.0, 619.0, 259.0);
        ((GeneralPath) shape).curveTo(619.0, 259.0, 620.0, 259.0, 621.0, 259.0);
        ((GeneralPath) shape).curveTo(621.0, 256.0, 621.0, 253.0, 621.0, 250.0);
        ((GeneralPath) shape).curveTo(614.0, 250.0, 610.0, 251.0, 603.0, 255.0);
        ((GeneralPath) shape).curveTo(607.0, 241.0, 596.0, 234.0, 603.0, 222.0);
        ((GeneralPath) shape).curveTo(611.0, 217.0, 625.0, 216.0, 634.0, 215.0);
        ((GeneralPath) shape).curveTo(634.0, 216.0, 635.0, 217.0, 635.0, 218.0);
        ((GeneralPath) shape).curveTo(646.0, 217.0, 649.0, 219.0, 660.0, 212.0);
        ((GeneralPath) shape).curveTo(660.0, 210.0, 659.0, 197.0, 660.0, 197.0);
        ((GeneralPath) shape).curveTo(670.0, 197.0, 681.0, 193.0, 687.0, 204.0);
        ((GeneralPath) shape).curveTo(691.0, 205.0, 702.0, 219.0, 705.0, 223.0);
        ((GeneralPath) shape).curveTo(717.0, 222.0, 715.0, 232.0, 720.0, 239.0);
        ((GeneralPath) shape).curveTo(716.0, 243.0, 715.0, 244.0, 713.0, 250.0);
        ((GeneralPath) shape).curveTo(702.0, 253.0, 708.0, 264.0, 697.0, 268.0);
        ((GeneralPath) shape).curveTo(697.0, 269.0, 697.0, 270.0, 697.0, 271.0);
        ((GeneralPath) shape).curveTo(693.0, 272.0, 690.0, 272.0, 686.0, 273.0);
        ((GeneralPath) shape).curveTo(686.0, 280.0, 691.0, 292.0, 693.0, 299.0);
        ((GeneralPath) shape).curveTo(690.0, 300.0, 688.0, 302.0, 686.0, 304.0);
        ((GeneralPath) shape).curveTo(684.0, 301.0, 683.0, 299.0, 680.0, 299.0);
        ((GeneralPath) shape).curveTo(680.0, 298.0, 680.0, 297.0, 680.0, 296.0);
        ((GeneralPath) shape).curveTo(675.0, 295.0, 673.0, 295.0, 671.0, 300.0);
        ((GeneralPath) shape).curveTo(665.0, 299.0, 663.0, 299.0, 660.0, 305.0);
        ((GeneralPath) shape).curveTo(657.0, 306.0, 657.0, 306.0, 651.0, 310.0);
        ((GeneralPath) shape).closePath();

        //g.setPaint(new Color(0xBDDB8C));
        continent = "asia";
        name = "Afghanistan";
        //g.fill(shape); 
        Territories.add(new Territory(name, continent, shape));
        //g.setPaint(new Color(0x9CC35A));
        //g.draw(shape);

        // _0_1_2_1
        shape = new GeneralPath();
        ((GeneralPath) shape).moveTo(713.0, 452.0);
        ((GeneralPath) shape).curveTo(712.0, 451.0, 711.0, 449.0, 709.0, 448.0);
        ((GeneralPath) shape).curveTo(709.0, 445.0, 710.0, 441.0, 710.0, 438.0);
        ((GeneralPath) shape).curveTo(711.0, 438.0, 712.0, 438.0, 714.0, 438.0);
        ((GeneralPath) shape).curveTo(717.0, 443.0, 718.0, 444.0, 718.0, 449.0);
        ((GeneralPath) shape).curveTo(716.0, 450.0, 715.0, 451.0, 713.0, 452.0);
        ((GeneralPath) shape).closePath();
        ((GeneralPath) shape).moveTo(656.0, 363.0);
        ((GeneralPath) shape).curveTo(656.0, 357.0, 659.0, 353.0, 660.0, 347.0);
        ((GeneralPath) shape).curveTo(659.0, 347.0, 658.0, 347.0, 657.0, 347.0);
        ((GeneralPath) shape).curveTo(656.0, 341.0, 654.0, 334.0, 653.0, 328.0);
        ((GeneralPath) shape).curveTo(652.0, 327.0, 651.0, 327.0, 650.0, 327.0);
        ((GeneralPath) shape).curveTo(650.0, 321.0, 650.0, 316.0, 651.0, 310.0);
        ((GeneralPath) shape).curveTo(657.0, 306.0, 657.0, 306.0, 660.0, 305.0);
        ((GeneralPath) shape).curveTo(663.0, 299.0, 665.0, 299.0, 671.0, 300.0);
        ((GeneralPath) shape).curveTo(673.0, 295.0, 675.0, 295.0, 680.0, 296.0);
        ((GeneralPath) shape).curveTo(680.0, 297.0, 680.0, 298.0, 680.0, 299.0);
        ((GeneralPath) shape).curveTo(683.0, 299.0, 684.0, 301.0, 686.0, 304.0);
        ((GeneralPath) shape).curveTo(688.0, 302.0, 690.0, 300.0, 693.0, 299.0);
        ((GeneralPath) shape).curveTo(695.0, 299.0, 698.0, 299.0, 700.0, 299.0);
        ((GeneralPath) shape).curveTo(701.0, 305.0, 704.0, 305.0, 710.0, 306.0);
        ((GeneralPath) shape).curveTo(710.0, 311.0, 710.0, 317.0, 710.0, 322.0);
        ((GeneralPath) shape).curveTo(708.0, 322.0, 707.0, 322.0, 706.0, 322.0);
        ((GeneralPath) shape).curveTo(706.0, 324.0, 706.0, 325.0, 706.0, 326.0);
        ((GeneralPath) shape).curveTo(713.0, 327.0, 727.0, 336.0, 731.0, 340.0);
        ((GeneralPath) shape).curveTo(735.0, 340.0, 738.0, 341.0, 741.0, 341.0);
        ((GeneralPath) shape).curveTo(741.0, 343.0, 741.0, 344.0, 740.0, 346.0);
        ((GeneralPath) shape).curveTo(743.0, 346.0, 745.0, 345.0, 748.0, 345.0);
        ((GeneralPath) shape).curveTo(748.0, 344.0, 748.0, 343.0, 748.0, 342.0);
        ((GeneralPath) shape).curveTo(750.0, 342.0, 753.0, 341.0, 756.0, 341.0);
        ((GeneralPath) shape).curveTo(755.0, 339.0, 755.0, 338.0, 755.0, 336.0);
        ((GeneralPath) shape).curveTo(761.0, 334.0, 763.0, 329.0, 768.0, 328.0);
        ((GeneralPath) shape).curveTo(769.0, 330.0, 770.0, 333.0, 771.0, 336.0);
        ((GeneralPath) shape).curveTo(768.0, 341.0, 768.0, 343.0, 767.0, 349.0);
        ((GeneralPath) shape).curveTo(766.0, 349.0, 765.0, 349.0, 765.0, 349.0);
        ((GeneralPath) shape).curveTo(765.0, 352.0, 765.0, 352.0, 764.0, 356.0);
        ((GeneralPath) shape).curveTo(763.0, 356.0, 762.0, 356.0, 761.0, 357.0);
        ((GeneralPath) shape).curveTo(759.0, 361.0, 758.0, 365.0, 757.0, 369.0);
        ((GeneralPath) shape).curveTo(750.0, 373.0, 745.0, 375.0, 737.0, 376.0);
        ((GeneralPath) shape).curveTo(734.0, 383.0, 724.0, 401.0, 718.0, 403.0);
        ((GeneralPath) shape).curveTo(717.0, 414.0, 713.0, 424.0, 712.0, 435.0);
        ((GeneralPath) shape).curveTo(710.0, 435.0, 709.0, 435.0, 707.0, 435.0);
        ((GeneralPath) shape).curveTo(707.0, 436.0, 707.0, 437.0, 708.0, 438.0);
        ((GeneralPath) shape).curveTo(707.0, 439.0, 706.0, 440.0, 705.0, 441.0);
        ((GeneralPath) shape).curveTo(704.0, 441.0, 702.0, 441.0, 701.0, 441.0);
        ((GeneralPath) shape).curveTo(696.0, 428.0, 691.0, 415.0, 686.0, 402.0);
        ((GeneralPath) shape).curveTo(686.0, 387.0, 686.0, 387.0, 685.0, 385.0);
        ((GeneralPath) shape).curveTo(687.0, 380.0, 687.0, 380.0, 686.0, 378.0);
        ((GeneralPath) shape).curveTo(686.0, 380.0, 685.0, 381.0, 684.0, 382.0);
        ((GeneralPath) shape).curveTo(680.0, 382.0, 676.0, 381.0, 675.0, 377.0);
        ((GeneralPath) shape).curveTo(676.0, 376.0, 677.0, 375.0, 679.0, 375.0);
        ((GeneralPath) shape).curveTo(677.0, 374.0, 676.0, 373.0, 675.0, 373.0);
        ((GeneralPath) shape).curveTo(674.0, 372.0, 674.0, 371.0, 674.0, 370.0);
        ((GeneralPath) shape).curveTo(670.0, 369.0, 670.0, 367.0, 669.0, 363.0);
        ((GeneralPath) shape).curveTo(664.0, 363.0, 660.0, 363.0, 656.0, 363.0);
        ((GeneralPath) shape).closePath();

        //g.setPaint(new Color(0xBDDB8C));
        continent = "asia";
        name = "India";
        //g.fill(shape); 
        Territories.add(new Territory(name, continent, shape));
        //g.setPaint(new Color(0x9CC35A));
        //g.draw(shape);

        // _0_1_2_2
        shape = new GeneralPath();
        ((GeneralPath) shape).moveTo(786.0, 217.0);
        ((GeneralPath) shape).curveTo(775.0, 207.0, 781.0, 183.0, 789.0, 172.0);
        ((GeneralPath) shape).curveTo(794.0, 169.0, 794.0, 169.0, 797.0, 166.0);
        ((GeneralPath) shape).curveTo(800.0, 166.0, 804.0, 165.0, 808.0, 164.0);
        ((GeneralPath) shape).curveTo(810.0, 162.0, 811.0, 159.0, 813.0, 157.0);
        ((GeneralPath) shape).curveTo(821.0, 157.0, 823.0, 155.0, 842.0, 156.0);
        ((GeneralPath) shape).curveTo(842.0, 156.0, 842.0, 157.0, 843.0, 158.0);
        ((GeneralPath) shape).curveTo(845.0, 159.0, 848.0, 159.0, 851.0, 159.0);
        ((GeneralPath) shape).curveTo(853.0, 165.0, 854.0, 165.0, 859.0, 168.0);
        ((GeneralPath) shape).curveTo(858.0, 178.0, 854.0, 188.0, 853.0, 198.0);
        ((GeneralPath) shape).curveTo(849.0, 198.0, 844.0, 200.0, 841.0, 197.0);
        ((GeneralPath) shape).curveTo(839.0, 198.0, 837.0, 199.0, 836.0, 200.0);
        ((GeneralPath) shape).curveTo(836.0, 204.0, 837.0, 208.0, 832.0, 209.0);
        ((GeneralPath) shape).curveTo(832.0, 214.0, 831.0, 217.0, 829.0, 222.0);
        ((GeneralPath) shape).curveTo(828.0, 222.0, 827.0, 222.0, 826.0, 222.0);
        ((GeneralPath) shape).curveTo(826.0, 220.0, 825.0, 218.0, 825.0, 215.0);
        ((GeneralPath) shape).curveTo(821.0, 216.0, 821.0, 216.0, 814.0, 220.0);
        ((GeneralPath) shape).curveTo(805.0, 219.0, 795.0, 220.0, 786.0, 217.0);
        ((GeneralPath) shape).closePath();

        //g.setPaint(new Color(0xBDDB8C));
        continent = "asia";
        name = "Irkutsk";
        //g.fill(shape); 
        Territories.add(new Territory(name, continent, shape));
        //g.setPaint(new Color(0x9CC35A));
        //g.draw(shape);

        // _0_1_2_3
        shape = new GeneralPath();
        ((GeneralPath) shape).moveTo(853.0, 198.0);
        ((GeneralPath) shape).curveTo(854.0, 188.0, 858.0, 178.0, 859.0, 168.0);
        ((GeneralPath) shape).curveTo(862.0, 157.0, 871.0, 155.0, 873.0, 144.0);
        ((GeneralPath) shape).curveTo(876.0, 144.0, 878.0, 143.0, 880.0, 143.0);
        ((GeneralPath) shape).curveTo(880.0, 142.0, 881.0, 141.0, 881.0, 140.0);
        ((GeneralPath) shape).curveTo(884.0, 139.0, 886.0, 138.0, 889.0, 138.0);
        ((GeneralPath) shape).curveTo(890.0, 139.0, 890.0, 141.0, 891.0, 143.0);
        ((GeneralPath) shape).curveTo(893.0, 144.0, 895.0, 144.0, 897.0, 145.0);
        ((GeneralPath) shape).curveTo(897.0, 146.0, 897.0, 147.0, 898.0, 148.0);
        ((GeneralPath) shape).curveTo(900.0, 147.0, 902.0, 146.0, 904.0, 146.0);
        ((GeneralPath) shape).curveTo(905.0, 143.0, 906.0, 141.0, 907.0, 139.0);
        ((GeneralPath) shape).curveTo(908.0, 139.0, 909.0, 139.0, 911.0, 139.0);
        ((GeneralPath) shape).curveTo(911.0, 136.0, 911.0, 133.0, 911.0, 131.0);
        ((GeneralPath) shape).curveTo(908.0, 130.0, 905.0, 130.0, 903.0, 129.0);
        ((GeneralPath) shape).curveTo(903.0, 126.0, 904.0, 122.0, 904.0, 119.0);
        ((GeneralPath) shape).curveTo(911.0, 116.0, 916.0, 112.0, 923.0, 111.0);
        ((GeneralPath) shape).curveTo(924.0, 109.0, 925.0, 107.0, 926.0, 106.0);
        ((GeneralPath) shape).curveTo(927.0, 105.0, 928.0, 105.0, 929.0, 105.0);
        ((GeneralPath) shape).curveTo(929.0, 104.0, 929.0, 103.0, 930.0, 102.0);
        ((GeneralPath) shape).curveTo(934.0, 102.0, 954.0, 110.0, 958.0, 106.0);
        ((GeneralPath) shape).curveTo(957.0, 106.0, 955.0, 106.0, 954.0, 106.0);
        ((GeneralPath) shape).curveTo(954.0, 105.0, 954.0, 104.0, 954.0, 103.0);
        ((GeneralPath) shape).curveTo(953.0, 103.0, 952.0, 103.0, 951.0, 103.0);
        ((GeneralPath) shape).curveTo(951.0, 102.0, 951.0, 101.0, 951.0, 100.0);
        ((GeneralPath) shape).curveTo(957.0, 100.0, 963.0, 100.0, 969.0, 100.0);
        ((GeneralPath) shape).curveTo(970.0, 102.0, 970.0, 103.0, 970.0, 104.0);
        ((GeneralPath) shape).curveTo(972.0, 103.0, 972.0, 103.0, 976.0, 102.0);
        ((GeneralPath) shape).curveTo(975.0, 103.0, 975.0, 103.0, 974.0, 104.0);
        ((GeneralPath) shape).curveTo(976.0, 105.0, 976.0, 105.0, 981.0, 105.0);
        ((GeneralPath) shape).curveTo(989.0, 110.0, 989.0, 110.0, 992.0, 111.0);
        ((GeneralPath) shape).curveTo(994.0, 115.0, 996.0, 116.0, 999.0, 119.0);
        ((GeneralPath) shape).curveTo(999.0, 118.0, 1000.0, 117.0, 1000.0, 116.0);
        ((GeneralPath) shape).curveTo(1004.0, 118.0, 1004.0, 118.0, 1009.0, 124.0);
        ((GeneralPath) shape).curveTo(1010.0, 123.0, 1011.0, 123.0, 1013.0, 123.0);
        ((GeneralPath) shape).curveTo(1011.0, 127.0, 1011.0, 127.0, 1010.0, 132.0);
        ((GeneralPath) shape).curveTo(1009.0, 132.0, 1007.0, 131.0, 1005.0, 131.0);
        ((GeneralPath) shape).curveTo(1005.0, 132.0, 1005.0, 133.0, 1005.0, 133.0);
        ((GeneralPath) shape).curveTo(1006.0, 134.0, 1008.0, 134.0, 1009.0, 134.0);
        ((GeneralPath) shape).curveTo(1008.0, 135.0, 1008.0, 135.0, 1000.0, 135.0);
        ((GeneralPath) shape).curveTo(998.0, 134.0, 998.0, 134.0, 998.0, 130.0);
        ((GeneralPath) shape).curveTo(997.0, 130.0, 996.0, 130.0, 995.0, 129.0);
        ((GeneralPath) shape).curveTo(995.0, 129.0, 995.0, 128.0, 995.0, 127.0);
        ((GeneralPath) shape).curveTo(992.0, 127.0, 990.0, 128.0, 987.0, 128.0);
        ((GeneralPath) shape).curveTo(987.0, 126.0, 986.0, 124.0, 985.0, 122.0);
        ((GeneralPath) shape).curveTo(985.0, 125.0, 985.0, 128.0, 985.0, 131.0);
        ((GeneralPath) shape).curveTo(982.0, 131.0, 980.0, 131.0, 977.0, 131.0);
        ((GeneralPath) shape).curveTo(977.0, 132.0, 977.0, 133.0, 977.0, 133.0);
        ((GeneralPath) shape).curveTo(979.0, 134.0, 981.0, 134.0, 983.0, 134.0);
        ((GeneralPath) shape).curveTo(983.0, 136.0, 982.0, 138.0, 982.0, 140.0);
        ((GeneralPath) shape).curveTo(983.0, 140.0, 984.0, 140.0, 985.0, 140.0);
        ((GeneralPath) shape).curveTo(985.0, 142.0, 985.0, 144.0, 985.0, 145.0);
        ((GeneralPath) shape).curveTo(983.0, 145.0, 981.0, 145.0, 980.0, 145.0);
        ((GeneralPath) shape).curveTo(979.0, 144.0, 979.0, 144.0, 979.0, 143.0);
        ((GeneralPath) shape).curveTo(974.0, 146.0, 968.0, 153.0, 965.0, 158.0);
        ((GeneralPath) shape).curveTo(958.0, 157.0, 957.0, 156.0, 951.0, 159.0);
        ((GeneralPath) shape).curveTo(950.0, 158.0, 949.0, 156.0, 948.0, 155.0);
        ((GeneralPath) shape).curveTo(947.0, 156.0, 945.0, 157.0, 944.0, 159.0);
        ((GeneralPath) shape).curveTo(945.0, 159.0, 946.0, 159.0, 946.0, 160.0);
        ((GeneralPath) shape).curveTo(946.0, 163.0, 942.0, 163.0, 942.0, 165.0);
        ((GeneralPath) shape).curveTo(943.0, 165.0, 944.0, 165.0, 945.0, 165.0);
        ((GeneralPath) shape).curveTo(944.0, 168.0, 943.0, 170.0, 942.0, 173.0);
        ((GeneralPath) shape).curveTo(943.0, 173.0, 944.0, 173.0, 945.0, 173.0);
        ((GeneralPath) shape).curveTo(945.0, 179.0, 945.0, 183.0, 940.0, 185.0);
        ((GeneralPath) shape).curveTo(940.0, 192.0, 939.0, 194.0, 936.0, 201.0);
        ((GeneralPath) shape).curveTo(935.0, 201.0, 934.0, 202.0, 934.0, 202.0);
        ((GeneralPath) shape).curveTo(930.0, 197.0, 927.0, 191.0, 924.0, 186.0);
        ((GeneralPath) shape).curveTo(922.0, 164.0, 937.0, 163.0, 943.0, 146.0);
        ((GeneralPath) shape).curveTo(944.0, 146.0, 945.0, 145.0, 946.0, 145.0);
        ((GeneralPath) shape).curveTo(943.0, 145.0, 942.0, 145.0, 939.0, 147.0);
        ((GeneralPath) shape).curveTo(939.0, 148.0, 939.0, 148.0, 940.0, 149.0);
        ((GeneralPath) shape).curveTo(938.0, 151.0, 936.0, 153.0, 935.0, 156.0);
        ((GeneralPath) shape).curveTo(933.0, 156.0, 931.0, 156.0, 930.0, 156.0);
        ((GeneralPath) shape).curveTo(929.0, 154.0, 929.0, 152.0, 929.0, 150.0);
        ((GeneralPath) shape).curveTo(926.0, 151.0, 923.0, 151.0, 920.0, 152.0);
        ((GeneralPath) shape).curveTo(919.0, 155.0, 919.0, 155.0, 918.0, 160.0);
        ((GeneralPath) shape).curveTo(919.0, 160.0, 920.0, 161.0, 921.0, 161.0);
        ((GeneralPath) shape).curveTo(921.0, 162.0, 921.0, 163.0, 921.0, 164.0);
        ((GeneralPath) shape).curveTo(909.0, 164.0, 881.0, 158.0, 877.0, 170.0);
        ((GeneralPath) shape).curveTo(872.0, 172.0, 869.0, 178.0, 866.0, 183.0);
        ((GeneralPath) shape).curveTo(869.0, 184.0, 873.0, 185.0, 876.0, 186.0);
        ((GeneralPath) shape).curveTo(876.0, 187.0, 876.0, 188.0, 877.0, 189.0);
        ((GeneralPath) shape).curveTo(877.0, 188.0, 878.0, 186.0, 878.0, 185.0);
        ((GeneralPath) shape).curveTo(880.0, 185.0, 882.0, 185.0, 884.0, 186.0);
        ((GeneralPath) shape).curveTo(890.0, 199.0, 891.0, 214.0, 889.0, 229.0);
        ((GeneralPath) shape).curveTo(886.0, 227.0, 884.0, 226.0, 881.0, 225.0);
        ((GeneralPath) shape).curveTo(881.0, 223.0, 880.0, 222.0, 880.0, 220.0);
        ((GeneralPath) shape).curveTo(879.0, 220.0, 877.0, 220.0, 876.0, 219.0);
        ((GeneralPath) shape).curveTo(876.0, 218.0, 876.0, 218.0, 876.0, 217.0);
        ((GeneralPath) shape).curveTo(873.0, 217.0, 870.0, 217.0, 867.0, 217.0);
        ((GeneralPath) shape).curveTo(864.0, 208.0, 857.0, 209.0, 855.0, 199.0);
        ((GeneralPath) shape).curveTo(855.0, 199.0, 854.0, 198.0, 853.0, 198.0);
        ((GeneralPath) shape).closePath();
        ((GeneralPath) shape).moveTo(962.0, 99.0);
        ((GeneralPath) shape).curveTo(961.0, 99.0, 960.0, 98.0, 959.0, 98.0);
        ((GeneralPath) shape).curveTo(959.0, 97.0, 960.0, 96.0, 960.0, 95.0);
        ((GeneralPath) shape).curveTo(963.0, 93.0, 963.0, 93.0, 967.0, 93.0);
        ((GeneralPath) shape).curveTo(965.0, 95.0, 965.0, 95.0, 964.0, 99.0);
        ((GeneralPath) shape).curveTo(963.0, 99.0, 962.0, 99.0, 962.0, 99.0);
        ((GeneralPath) shape).closePath();

        //g.setPaint(new Color(0xBDDB8C));
        continent = "asia";
        name = "Kamchatka";
        //g.fill(shape); 
        Territories.add(new Territory(name, continent, shape));
        //g.setPaint(new Color(0x9CC35A));
        //g.draw(shape);

        // _0_1_2_4
        shape = new GeneralPath();
        ((GeneralPath) shape).moveTo(548.0, 321.0);
        ((GeneralPath) shape).curveTo(548.0, 320.0, 547.0, 318.0, 547.0, 317.0);
        ((GeneralPath) shape).curveTo(551.0, 315.0, 553.0, 315.0, 557.0, 315.0);
        ((GeneralPath) shape).curveTo(554.0, 319.0, 553.0, 320.0, 548.0, 321.0);
        ((GeneralPath) shape).closePath();
        ((GeneralPath) shape).moveTo(563.0, 353.0);
        ((GeneralPath) shape).curveTo(562.0, 348.0, 560.0, 343.0, 559.0, 338.0);
        ((GeneralPath) shape).curveTo(566.0, 330.0, 563.0, 321.0, 565.0, 310.0);
        ((GeneralPath) shape).curveTo(564.0, 310.0, 564.0, 309.0, 563.0, 309.0);
        ((GeneralPath) shape).curveTo(560.0, 311.0, 560.0, 311.0, 552.0, 312.0);
        ((GeneralPath) shape).curveTo(552.0, 312.0, 551.0, 311.0, 550.0, 310.0);
        ((GeneralPath) shape).curveTo(547.0, 311.0, 544.0, 312.0, 541.0, 313.0);
        ((GeneralPath) shape).curveTo(541.0, 312.0, 540.0, 311.0, 540.0, 310.0);
        ((GeneralPath) shape).curveTo(539.0, 311.0, 537.0, 311.0, 535.0, 311.0);
        ((GeneralPath) shape).curveTo(533.0, 301.0, 530.0, 296.0, 530.0, 290.0);
        ((GeneralPath) shape).curveTo(538.0, 275.0, 530.0, 290.0, 538.0, 275.0);
        ((GeneralPath) shape).curveTo(540.0, 277.0, 541.0, 279.0, 543.0, 281.0);
        ((GeneralPath) shape).curveTo(546.0, 281.0, 549.0, 281.0, 551.0, 281.0);
        ((GeneralPath) shape).curveTo(551.0, 280.0, 551.0, 279.0, 551.0, 278.0);
        ((GeneralPath) shape).curveTo(560.0, 278.0, 566.0, 275.0, 571.0, 282.0);
        ((GeneralPath) shape).curveTo(573.0, 281.0, 577.0, 282.0, 585.0, 280.0);
        ((GeneralPath) shape).curveTo(586.0, 281.0, 586.0, 281.0, 590.0, 283.0);
        ((GeneralPath) shape).curveTo(591.0, 285.0, 591.0, 287.0, 591.0, 289.0);
        ((GeneralPath) shape).curveTo(593.0, 289.0, 594.0, 289.0, 595.0, 289.0);
        ((GeneralPath) shape).curveTo(596.0, 291.0, 598.0, 294.0, 599.0, 296.0);
        ((GeneralPath) shape).curveTo(603.0, 296.0, 603.0, 296.0, 608.0, 294.0);
        ((GeneralPath) shape).curveTo(609.0, 302.0, 609.0, 302.0, 610.0, 305.0);
        ((GeneralPath) shape).curveTo(617.0, 306.0, 621.0, 307.0, 627.0, 305.0);
        ((GeneralPath) shape).curveTo(627.0, 304.0, 627.0, 302.0, 627.0, 301.0);
        ((GeneralPath) shape).curveTo(634.0, 300.0, 640.0, 296.0, 643.0, 304.0);
        ((GeneralPath) shape).curveTo(647.0, 306.0, 648.0, 307.0, 651.0, 311.0);
        ((GeneralPath) shape).curveTo(650.0, 317.0, 650.0, 322.0, 650.0, 327.0);
        ((GeneralPath) shape).curveTo(651.0, 327.0, 652.0, 327.0, 653.0, 328.0);
        ((GeneralPath) shape).curveTo(654.0, 334.0, 656.0, 341.0, 657.0, 347.0);
        ((GeneralPath) shape).curveTo(658.0, 347.0, 659.0, 347.0, 660.0, 347.0);
        ((GeneralPath) shape).curveTo(659.0, 353.0, 656.0, 357.0, 656.0, 363.0);
        ((GeneralPath) shape).curveTo(651.0, 364.0, 645.0, 364.0, 640.0, 365.0);
        ((GeneralPath) shape).curveTo(640.0, 363.0, 640.0, 361.0, 640.0, 359.0);
        ((GeneralPath) shape).curveTo(638.0, 359.0, 634.0, 360.0, 625.0, 359.0);
        ((GeneralPath) shape).curveTo(624.0, 358.0, 624.0, 357.0, 624.0, 356.0);
        ((GeneralPath) shape).curveTo(622.0, 356.0, 621.0, 356.0, 620.0, 355.0);
        ((GeneralPath) shape).curveTo(616.0, 343.0, 617.0, 340.0, 605.0, 343.0);
        ((GeneralPath) shape).curveTo(605.0, 347.0, 607.0, 349.0, 609.0, 353.0);
        ((GeneralPath) shape).curveTo(610.0, 353.0, 611.0, 353.0, 612.0, 353.0);
        ((GeneralPath) shape).curveTo(614.0, 357.0, 616.0, 361.0, 618.0, 365.0);
        ((GeneralPath) shape).curveTo(619.0, 363.0, 620.0, 362.0, 621.0, 361.0);
        ((GeneralPath) shape).curveTo(624.0, 363.0, 621.0, 367.0, 621.0, 370.0);
        ((GeneralPath) shape).curveTo(622.0, 371.0, 623.0, 371.0, 624.0, 372.0);
        ((GeneralPath) shape).curveTo(628.0, 369.0, 632.0, 366.0, 637.0, 362.0);
        ((GeneralPath) shape).curveTo(640.0, 370.0, 644.0, 371.0, 647.0, 377.0);
        ((GeneralPath) shape).curveTo(646.0, 381.0, 644.0, 384.0, 642.0, 387.0);
        ((GeneralPath) shape).curveTo(642.0, 387.0, 641.0, 386.0, 641.0, 386.0);
        ((GeneralPath) shape).curveTo(640.0, 389.0, 640.0, 392.0, 639.0, 395.0);
        ((GeneralPath) shape).curveTo(638.0, 396.0, 636.0, 396.0, 635.0, 396.0);
        ((GeneralPath) shape).curveTo(631.0, 410.0, 601.0, 418.0, 590.0, 422.0);
        ((GeneralPath) shape).curveTo(590.0, 406.0, 584.0, 393.0, 574.0, 380.0);
        ((GeneralPath) shape).curveTo(574.0, 371.0, 567.0, 362.0, 563.0, 353.0);
        ((GeneralPath) shape).lineTo(563.0, 353.0);
        ((GeneralPath) shape).closePath();

        //g.setPaint(new Color(0xBDDB8C));
        continent = "asia";
        name = "Middle East";
        //g.fill(shape); 
        Territories.add(new Territory(name, continent, shape));
        //g.setPaint(new Color(0x9CC35A));
        //g.draw(shape);

        // _0_1_2_5
        shape = new GeneralPath();
        ((GeneralPath) shape).moveTo(836.0, 271.0);
        ((GeneralPath) shape).curveTo(829.0, 261.0, 812.0, 262.0, 802.0, 260.0);
        ((GeneralPath) shape).curveTo(802.0, 257.0, 802.0, 254.0, 802.0, 251.0);
        ((GeneralPath) shape).curveTo(799.0, 251.0, 797.0, 250.0, 794.0, 250.0);
        ((GeneralPath) shape).curveTo(791.0, 243.0, 791.0, 238.0, 786.0, 232.0);
        ((GeneralPath) shape).curveTo(786.0, 230.0, 786.0, 229.0, 787.0, 228.0);
        ((GeneralPath) shape).curveTo(785.0, 224.0, 786.0, 221.0, 786.0, 217.0);
        ((GeneralPath) shape).curveTo(795.0, 220.0, 805.0, 219.0, 814.0, 220.0);
        ((GeneralPath) shape).curveTo(821.0, 216.0, 821.0, 216.0, 825.0, 215.0);
        ((GeneralPath) shape).curveTo(825.0, 218.0, 826.0, 220.0, 826.0, 222.0);
        ((GeneralPath) shape).curveTo(827.0, 222.0, 828.0, 222.0, 829.0, 222.0);
        ((GeneralPath) shape).curveTo(831.0, 217.0, 832.0, 214.0, 832.0, 209.0);
        ((GeneralPath) shape).curveTo(837.0, 208.0, 836.0, 204.0, 836.0, 200.0);
        ((GeneralPath) shape).curveTo(837.0, 199.0, 839.0, 198.0, 841.0, 197.0);
        ((GeneralPath) shape).curveTo(844.0, 200.0, 849.0, 198.0, 853.0, 198.0);
        ((GeneralPath) shape).curveTo(854.0, 198.0, 855.0, 199.0, 855.0, 199.0);
        ((GeneralPath) shape).curveTo(857.0, 209.0, 864.0, 208.0, 867.0, 217.0);
        ((GeneralPath) shape).curveTo(870.0, 217.0, 873.0, 217.0, 876.0, 217.0);
        ((GeneralPath) shape).curveTo(876.0, 218.0, 876.0, 218.0, 876.0, 219.0);
        ((GeneralPath) shape).curveTo(877.0, 220.0, 879.0, 220.0, 880.0, 220.0);
        ((GeneralPath) shape).curveTo(880.0, 222.0, 881.0, 223.0, 881.0, 225.0);
        ((GeneralPath) shape).curveTo(884.0, 226.0, 886.0, 227.0, 889.0, 229.0);
        ((GeneralPath) shape).curveTo(885.0, 234.0, 881.0, 240.0, 878.0, 246.0);
        ((GeneralPath) shape).curveTo(876.0, 246.0, 875.0, 246.0, 873.0, 246.0);
        ((GeneralPath) shape).curveTo(873.0, 246.0, 872.0, 245.0, 872.0, 245.0);
        ((GeneralPath) shape).curveTo(868.0, 251.0, 868.0, 255.0, 863.0, 260.0);
        ((GeneralPath) shape).curveTo(863.0, 261.0, 863.0, 262.0, 863.0, 263.0);
        ((GeneralPath) shape).curveTo(869.0, 266.0, 874.0, 273.0, 874.0, 280.0);
        ((GeneralPath) shape).curveTo(870.0, 283.0, 868.0, 285.0, 863.0, 285.0);
        ((GeneralPath) shape).curveTo(864.0, 280.0, 864.0, 279.0, 861.0, 275.0);
        ((GeneralPath) shape).curveTo(861.0, 276.0, 860.0, 276.0, 860.0, 277.0);
        ((GeneralPath) shape).curveTo(858.0, 274.0, 857.0, 274.0, 858.0, 270.0);
        ((GeneralPath) shape).curveTo(853.0, 270.0, 850.0, 270.0, 846.0, 272.0);
        ((GeneralPath) shape).curveTo(846.0, 267.0, 847.0, 267.0, 845.0, 263.0);
        ((GeneralPath) shape).curveTo(842.0, 265.0, 840.0, 268.0, 836.0, 271.0);
        ((GeneralPath) shape).closePath();

        //g.setPaint(new Color(0xBDDB8C));
        continent = "asia";
        name = "Mongolia";
        //g.fill(shape); 
        Territories.add(new Territory(name, continent, shape));
        //g.setPaint(new Color(0x9CC35A));
        //g.draw(shape);

        // _0_1_2_6
        shape = new GeneralPath();
        ((GeneralPath) shape).moveTo(757.0, 369.0);
        ((GeneralPath) shape).curveTo(758.0, 365.0, 759.0, 361.0, 761.0, 357.0);
        ((GeneralPath) shape).curveTo(762.0, 356.0, 763.0, 356.0, 764.0, 356.0);
        ((GeneralPath) shape).curveTo(765.0, 352.0, 765.0, 352.0, 765.0, 349.0);
        ((GeneralPath) shape).curveTo(765.0, 349.0, 766.0, 349.0, 767.0, 349.0);
        ((GeneralPath) shape).curveTo(768.0, 343.0, 768.0, 341.0, 771.0, 336.0);
        ((GeneralPath) shape).curveTo(773.0, 335.0, 774.0, 334.0, 776.0, 334.0);
        ((GeneralPath) shape).curveTo(779.0, 342.0, 779.0, 343.0, 776.0, 350.0);
        ((GeneralPath) shape).curveTo(777.0, 350.0, 779.0, 350.0, 780.0, 350.0);
        ((GeneralPath) shape).curveTo(780.0, 351.0, 780.0, 352.0, 780.0, 353.0);
        ((GeneralPath) shape).curveTo(781.0, 352.0, 782.0, 352.0, 782.0, 352.0);
        ((GeneralPath) shape).curveTo(788.0, 342.0, 796.0, 338.0, 802.0, 349.0);
        ((GeneralPath) shape).curveTo(799.0, 350.0, 797.0, 352.0, 795.0, 354.0);
        ((GeneralPath) shape).curveTo(795.0, 356.0, 794.0, 359.0, 794.0, 362.0);
        ((GeneralPath) shape).curveTo(796.0, 362.0, 797.0, 363.0, 799.0, 363.0);
        ((GeneralPath) shape).curveTo(799.0, 365.0, 800.0, 366.0, 800.0, 367.0);
        ((GeneralPath) shape).curveTo(801.0, 368.0, 802.0, 368.0, 803.0, 369.0);
        ((GeneralPath) shape).curveTo(803.0, 369.0, 803.0, 370.0, 803.0, 371.0);
        ((GeneralPath) shape).curveTo(804.0, 371.0, 805.0, 371.0, 806.0, 371.0);
        ((GeneralPath) shape).curveTo(806.0, 380.0, 806.0, 385.0, 803.0, 392.0);
        ((GeneralPath) shape).curveTo(801.0, 392.0, 799.0, 392.0, 798.0, 392.0);
        ((GeneralPath) shape).curveTo(796.0, 396.0, 796.0, 398.0, 792.0, 400.0);
        ((GeneralPath) shape).curveTo(791.0, 398.0, 791.0, 398.0, 790.0, 394.0);
        ((GeneralPath) shape).curveTo(789.0, 394.0, 788.0, 394.0, 788.0, 394.0);
        ((GeneralPath) shape).curveTo(788.0, 392.0, 788.0, 391.0, 788.0, 390.0);
        ((GeneralPath) shape).curveTo(785.0, 389.0, 783.0, 389.0, 781.0, 388.0);
        ((GeneralPath) shape).curveTo(781.0, 387.0, 781.0, 387.0, 781.0, 386.0);
        ((GeneralPath) shape).curveTo(780.0, 386.0, 779.0, 386.0, 777.0, 386.0);
        ((GeneralPath) shape).curveTo(777.0, 384.0, 777.0, 383.0, 777.0, 382.0);
        ((GeneralPath) shape).curveTo(777.0, 382.0, 776.0, 382.0, 776.0, 382.0);
        ((GeneralPath) shape).curveTo(775.0, 393.0, 770.0, 395.0, 778.0, 406.0);
        ((GeneralPath) shape).curveTo(781.0, 407.0, 783.0, 408.0, 785.0, 409.0);
        ((GeneralPath) shape).curveTo(786.0, 415.0, 785.0, 420.0, 786.0, 426.0);
        ((GeneralPath) shape).curveTo(785.0, 426.0, 784.0, 426.0, 782.0, 426.0);
        ((GeneralPath) shape).curveTo(775.0, 420.0, 775.0, 418.0, 773.0, 408.0);
        ((GeneralPath) shape).curveTo(773.0, 408.0, 772.0, 408.0, 771.0, 408.0);
        ((GeneralPath) shape).curveTo(764.0, 396.0, 773.0, 377.0, 757.0, 373.0);
        ((GeneralPath) shape).curveTo(757.0, 371.0, 757.0, 370.0, 757.0, 369.0);
        ((GeneralPath) shape).closePath();

        //g.setPaint(new Color(0xBDDB8C));
        continent = "asia";
        name = "Siam";
        //g.fill(shape); 
        Territories.add(new Territory(name, continent, shape));
        //g.setPaint(new Color(0x9CC35A));
        //g.draw(shape);

        // _0_1_2_7
        shape = new GeneralPath();
        ((GeneralPath) shape).moveTo(803.0, 361.0);
        ((GeneralPath) shape).curveTo(804.0, 359.0, 804.0, 358.0, 805.0, 356.0);
        ((GeneralPath) shape).curveTo(807.0, 356.0, 810.0, 356.0, 812.0, 355.0);
        ((GeneralPath) shape).curveTo(812.0, 357.0, 812.0, 358.0, 812.0, 359.0);
        ((GeneralPath) shape).curveTo(809.0, 360.0, 806.0, 360.0, 803.0, 361.0);
        ((GeneralPath) shape).closePath();
        ((GeneralPath) shape).moveTo(802.0, 349.0);
        ((GeneralPath) shape).curveTo(796.0, 338.0, 788.0, 342.0, 782.0, 352.0);
        ((GeneralPath) shape).curveTo(782.0, 352.0, 781.0, 352.0, 780.0, 353.0);
        ((GeneralPath) shape).curveTo(780.0, 352.0, 780.0, 351.0, 780.0, 350.0);
        ((GeneralPath) shape).curveTo(779.0, 350.0, 777.0, 350.0, 776.0, 350.0);
        ((GeneralPath) shape).curveTo(779.0, 343.0, 779.0, 342.0, 776.0, 334.0);
        ((GeneralPath) shape).curveTo(774.0, 334.0, 773.0, 335.0, 771.0, 336.0);
        ((GeneralPath) shape).curveTo(770.0, 333.0, 769.0, 330.0, 768.0, 328.0);
        ((GeneralPath) shape).curveTo(763.0, 329.0, 761.0, 334.0, 755.0, 336.0);
        ((GeneralPath) shape).curveTo(755.0, 338.0, 755.0, 339.0, 756.0, 341.0);
        ((GeneralPath) shape).curveTo(753.0, 341.0, 750.0, 342.0, 748.0, 342.0);
        ((GeneralPath) shape).curveTo(748.0, 343.0, 748.0, 344.0, 748.0, 345.0);
        ((GeneralPath) shape).curveTo(745.0, 345.0, 743.0, 346.0, 740.0, 346.0);
        ((GeneralPath) shape).curveTo(741.0, 344.0, 741.0, 343.0, 741.0, 341.0);
        ((GeneralPath) shape).curveTo(738.0, 341.0, 735.0, 340.0, 731.0, 340.0);
        ((GeneralPath) shape).curveTo(727.0, 336.0, 713.0, 327.0, 706.0, 326.0);
        ((GeneralPath) shape).curveTo(706.0, 325.0, 706.0, 324.0, 706.0, 322.0);
        ((GeneralPath) shape).curveTo(707.0, 322.0, 708.0, 322.0, 710.0, 322.0);
        ((GeneralPath) shape).curveTo(710.0, 317.0, 710.0, 311.0, 710.0, 306.0);
        ((GeneralPath) shape).curveTo(704.0, 305.0, 701.0, 305.0, 700.0, 299.0);
        ((GeneralPath) shape).curveTo(698.0, 299.0, 695.0, 299.0, 693.0, 299.0);
        ((GeneralPath) shape).curveTo(691.0, 292.0, 686.0, 280.0, 686.0, 273.0);
        ((GeneralPath) shape).curveTo(690.0, 272.0, 693.0, 272.0, 697.0, 271.0);
        ((GeneralPath) shape).curveTo(697.0, 270.0, 697.0, 269.0, 697.0, 268.0);
        ((GeneralPath) shape).curveTo(708.0, 264.0, 702.0, 253.0, 713.0, 250.0);
        ((GeneralPath) shape).curveTo(715.0, 244.0, 716.0, 243.0, 720.0, 239.0);
        ((GeneralPath) shape).curveTo(730.0, 242.0, 747.0, 258.0, 758.0, 250.0);
        ((GeneralPath) shape).curveTo(770.0, 257.0, 788.0, 263.0, 802.0, 260.0);
        ((GeneralPath) shape).curveTo(812.0, 262.0, 829.0, 261.0, 836.0, 271.0);
        ((GeneralPath) shape).curveTo(835.0, 272.0, 835.0, 272.0, 832.0, 271.0);
        ((GeneralPath) shape).curveTo(833.0, 272.0, 834.0, 274.0, 835.0, 275.0);
        ((GeneralPath) shape).curveTo(836.0, 275.0, 837.0, 276.0, 839.0, 276.0);
        ((GeneralPath) shape).curveTo(838.0, 277.0, 838.0, 278.0, 838.0, 279.0);
        ((GeneralPath) shape).curveTo(841.0, 279.0, 843.0, 278.0, 852.0, 279.0);
        ((GeneralPath) shape).curveTo(852.0, 280.0, 852.0, 280.0, 852.0, 281.0);
        ((GeneralPath) shape).curveTo(846.0, 283.0, 843.0, 284.0, 839.0, 287.0);
        ((GeneralPath) shape).curveTo(842.0, 290.0, 842.0, 290.0, 843.0, 293.0);
        ((GeneralPath) shape).curveTo(846.0, 294.0, 846.0, 294.0, 848.0, 295.0);
        ((GeneralPath) shape).curveTo(847.0, 296.0, 846.0, 296.0, 845.0, 297.0);
        ((GeneralPath) shape).curveTo(847.0, 297.0, 848.0, 298.0, 849.0, 298.0);
        ((GeneralPath) shape).curveTo(850.0, 300.0, 850.0, 301.0, 850.0, 303.0);
        ((GeneralPath) shape).curveTo(848.0, 303.0, 848.0, 303.0, 848.0, 304.0);
        ((GeneralPath) shape).curveTo(849.0, 304.0, 849.0, 304.0, 850.0, 304.0);
        ((GeneralPath) shape).curveTo(850.0, 305.0, 850.0, 306.0, 850.0, 308.0);
        ((GeneralPath) shape).curveTo(849.0, 308.0, 849.0, 308.0, 848.0, 308.0);
        ((GeneralPath) shape).curveTo(855.0, 322.0, 825.0, 351.0, 812.0, 349.0);
        ((GeneralPath) shape).curveTo(812.0, 350.0, 812.0, 352.0, 812.0, 354.0);
        ((GeneralPath) shape).curveTo(807.0, 353.0, 807.0, 350.0, 802.0, 349.0);
        ((GeneralPath) shape).closePath();
        ((GeneralPath) shape).moveTo(841.0, 345.0);
        ((GeneralPath) shape).curveTo(842.0, 337.0, 842.0, 337.0, 844.0, 333.0);
        ((GeneralPath) shape).curveTo(845.0, 333.0, 846.0, 333.0, 846.0, 333.0);
        ((GeneralPath) shape).curveTo(846.0, 332.0, 846.0, 331.0, 846.0, 330.0);
        ((GeneralPath) shape).curveTo(848.0, 330.0, 849.0, 330.0, 850.0, 330.0);
        ((GeneralPath) shape).curveTo(848.0, 338.0, 848.0, 341.0, 841.0, 345.0);
        ((GeneralPath) shape).closePath();

        //g.setPaint(new Color(0xBDDB8C));
        continent = "asia";
        name = "China";
        //g.fill(shape); 
        Territories.add(new Territory(name, continent, shape));
        //g.setPaint(new Color(0x9CC35A));
        //g.draw(shape);

        // _0_1_2_8
        shape = new GeneralPath();
        ((GeneralPath) shape).moveTo(887.0, 288.0);
        ((GeneralPath) shape).curveTo(887.0, 290.0, 887.0, 291.0, 887.0, 293.0);
        ((GeneralPath) shape).curveTo(887.0, 293.0, 886.0, 293.0, 885.0, 293.0);
        ((GeneralPath) shape).curveTo(884.0, 295.0, 883.0, 298.0, 883.0, 300.0);
        ((GeneralPath) shape).curveTo(881.0, 300.0, 880.0, 301.0, 878.0, 301.0);
        ((GeneralPath) shape).curveTo(878.0, 296.0, 880.0, 295.0, 880.0, 291.0);
        ((GeneralPath) shape).curveTo(879.0, 292.0, 877.0, 292.0, 876.0, 293.0);
        ((GeneralPath) shape).curveTo(876.0, 291.0, 876.0, 288.0, 876.0, 285.0);
        ((GeneralPath) shape).curveTo(884.0, 286.0, 884.0, 286.0, 887.0, 288.0);
        ((GeneralPath) shape).closePath();
        ((GeneralPath) shape).moveTo(887.0, 288.0);
        ((GeneralPath) shape).curveTo(887.0, 287.0, 886.0, 286.0, 886.0, 285.0);
        ((GeneralPath) shape).curveTo(890.0, 279.0, 894.0, 278.0, 900.0, 277.0);
        ((GeneralPath) shape).curveTo(900.0, 278.0, 900.0, 279.0, 900.0, 280.0);
        ((GeneralPath) shape).curveTo(897.0, 285.0, 894.0, 285.0, 889.0, 289.0);
        ((GeneralPath) shape).curveTo(889.0, 288.0, 888.0, 288.0, 887.0, 288.0);
        ((GeneralPath) shape).closePath();
        ((GeneralPath) shape).moveTo(900.0, 280.0);
        ((GeneralPath) shape).curveTo(900.0, 279.0, 900.0, 278.0, 900.0, 277.0);
        ((GeneralPath) shape).curveTo(899.0, 277.0, 899.0, 276.0, 898.0, 275.0);
        ((GeneralPath) shape).curveTo(891.0, 277.0, 885.0, 283.0, 878.0, 284.0);
        ((GeneralPath) shape).curveTo(878.0, 283.0, 878.0, 282.0, 878.0, 281.0);
        ((GeneralPath) shape).curveTo(883.0, 279.0, 891.0, 271.0, 894.0, 267.0);
        ((GeneralPath) shape).curveTo(896.0, 267.0, 898.0, 268.0, 900.0, 268.0);
        ((GeneralPath) shape).curveTo(898.0, 264.0, 899.0, 263.0, 900.0, 259.0);
        ((GeneralPath) shape).curveTo(901.0, 259.0, 902.0, 259.0, 903.0, 259.0);
        ((GeneralPath) shape).curveTo(902.0, 252.0, 901.0, 250.0, 902.0, 244.0);
        ((GeneralPath) shape).curveTo(905.0, 244.0, 905.0, 244.0, 907.0, 245.0);
        ((GeneralPath) shape).curveTo(907.0, 244.0, 907.0, 242.0, 907.0, 240.0);
        ((GeneralPath) shape).curveTo(907.0, 240.0, 908.0, 240.0, 909.0, 240.0);
        ((GeneralPath) shape).curveTo(909.0, 240.0, 908.0, 239.0, 908.0, 238.0);
        ((GeneralPath) shape).curveTo(907.0, 238.0, 906.0, 239.0, 905.0, 239.0);
        ((GeneralPath) shape).curveTo(905.0, 238.0, 905.0, 237.0, 905.0, 236.0);
        ((GeneralPath) shape).curveTo(903.0, 238.0, 903.0, 238.0, 904.0, 242.0);
        ((GeneralPath) shape).curveTo(903.0, 242.0, 901.0, 242.0, 900.0, 242.0);
        ((GeneralPath) shape).curveTo(900.0, 240.0, 900.0, 239.0, 900.0, 237.0);
        ((GeneralPath) shape).curveTo(902.0, 233.0, 902.0, 233.0, 905.0, 232.0);
        ((GeneralPath) shape).curveTo(905.0, 231.0, 904.0, 229.0, 904.0, 227.0);
        ((GeneralPath) shape).curveTo(903.0, 227.0, 902.0, 226.0, 901.0, 226.0);
        ((GeneralPath) shape).curveTo(898.0, 209.0, 889.0, 203.0, 893.0, 184.0);
        ((GeneralPath) shape).curveTo(899.0, 187.0, 901.0, 197.0, 901.0, 204.0);
        ((GeneralPath) shape).curveTo(905.0, 207.0, 907.0, 209.0, 908.0, 214.0);
        ((GeneralPath) shape).curveTo(907.0, 214.0, 906.0, 213.0, 905.0, 213.0);
        ((GeneralPath) shape).curveTo(905.0, 220.0, 906.0, 226.0, 912.0, 230.0);
        ((GeneralPath) shape).curveTo(912.0, 231.0, 912.0, 232.0, 912.0, 232.0);
        ((GeneralPath) shape).curveTo(913.0, 232.0, 915.0, 232.0, 917.0, 232.0);
        ((GeneralPath) shape).curveTo(917.0, 235.0, 918.0, 237.0, 918.0, 239.0);
        ((GeneralPath) shape).curveTo(906.0, 241.0, 915.0, 252.0, 911.0, 261.0);
        ((GeneralPath) shape).curveTo(912.0, 266.0, 914.0, 269.0, 912.0, 274.0);
        ((GeneralPath) shape).curveTo(910.0, 274.0, 908.0, 274.0, 907.0, 275.0);
        ((GeneralPath) shape).curveTo(907.0, 277.0, 907.0, 278.0, 907.0, 280.0);
        ((GeneralPath) shape).curveTo(905.0, 281.0, 902.0, 282.0, 900.0, 283.0);
        ((GeneralPath) shape).curveTo(900.0, 282.0, 900.0, 281.0, 900.0, 280.0);
        ((GeneralPath) shape).closePath();

        //g.setPaint(new Color(0xBDDB8C));
        continent = "asia";
        name = "Japan";
        //g.fill(shape); 
        Territories.add(new Territory(name, continent, shape));
        //g.setPaint(new Color(0x9CC35A));
        //g.draw(shape);

        // _0_1_2_9
        shape = new GeneralPath();
        ((GeneralPath) shape).moveTo(758.0, 250.0);
        ((GeneralPath) shape).curveTo(752.0, 238.0, 759.0, 226.0, 744.0, 223.0);
        ((GeneralPath) shape).curveTo(745.0, 218.0, 746.0, 217.0, 746.0, 214.0);
        ((GeneralPath) shape).curveTo(740.0, 210.0, 735.0, 206.0, 733.0, 200.0);
        ((GeneralPath) shape).curveTo(721.0, 195.0, 717.0, 182.0, 715.0, 169.0);
        ((GeneralPath) shape).curveTo(712.0, 165.0, 711.0, 160.0, 707.0, 159.0);
        ((GeneralPath) shape).curveTo(706.0, 152.0, 706.0, 150.0, 702.0, 144.0);
        ((GeneralPath) shape).curveTo(702.0, 144.0, 701.0, 145.0, 701.0, 145.0);
        ((GeneralPath) shape).curveTo(699.0, 139.0, 699.0, 139.0, 698.0, 132.0);
        ((GeneralPath) shape).curveTo(696.0, 132.0, 694.0, 131.0, 692.0, 131.0);
        ((GeneralPath) shape).curveTo(693.0, 129.0, 693.0, 129.0, 692.0, 127.0);
        ((GeneralPath) shape).curveTo(692.0, 127.0, 693.0, 127.0, 694.0, 128.0);
        ((GeneralPath) shape).curveTo(695.0, 125.0, 695.0, 125.0, 693.0, 118.0);
        ((GeneralPath) shape).curveTo(690.0, 118.0, 687.0, 118.0, 684.0, 119.0);
        ((GeneralPath) shape).curveTo(683.0, 113.0, 683.0, 107.0, 682.0, 102.0);
        ((GeneralPath) shape).curveTo(683.0, 101.0, 684.0, 100.0, 685.0, 99.0);
        ((GeneralPath) shape).curveTo(687.0, 105.0, 688.0, 105.0, 694.0, 107.0);
        ((GeneralPath) shape).curveTo(692.0, 103.0, 692.0, 103.0, 692.0, 100.0);
        ((GeneralPath) shape).curveTo(693.0, 100.0, 693.0, 99.0, 693.0, 99.0);
        ((GeneralPath) shape).curveTo(701.0, 104.0, 699.0, 110.0, 707.0, 112.0);
        ((GeneralPath) shape).curveTo(707.0, 111.0, 707.0, 110.0, 707.0, 110.0);
        ((GeneralPath) shape).curveTo(706.0, 110.0, 705.0, 110.0, 704.0, 110.0);
        ((GeneralPath) shape).curveTo(704.0, 109.0, 704.0, 108.0, 704.0, 107.0);
        ((GeneralPath) shape).curveTo(703.0, 107.0, 703.0, 107.0, 702.0, 107.0);
        ((GeneralPath) shape).curveTo(702.0, 104.0, 702.0, 102.0, 702.0, 99.0);
        ((GeneralPath) shape).curveTo(702.0, 99.0, 701.0, 100.0, 701.0, 100.0);
        ((GeneralPath) shape).curveTo(698.0, 97.0, 697.0, 96.0, 697.0, 91.0);
        ((GeneralPath) shape).curveTo(700.0, 90.0, 703.0, 88.0, 706.0, 87.0);
        ((GeneralPath) shape).curveTo(706.0, 88.0, 706.0, 90.0, 706.0, 91.0);
        ((GeneralPath) shape).curveTo(709.0, 90.0, 711.0, 88.0, 713.0, 86.0);
        ((GeneralPath) shape).curveTo(713.0, 86.0, 712.0, 85.0, 711.0, 84.0);
        ((GeneralPath) shape).curveTo(719.0, 81.0, 731.0, 73.0, 740.0, 73.0);
        ((GeneralPath) shape).curveTo(743.0, 75.0, 743.0, 75.0, 749.0, 74.0);
        ((GeneralPath) shape).curveTo(750.0, 72.0, 750.0, 70.0, 750.0, 69.0);
        ((GeneralPath) shape).curveTo(759.0, 65.0, 760.0, 67.0, 767.0, 72.0);
        ((GeneralPath) shape).curveTo(768.0, 75.0, 768.0, 75.0, 770.0, 75.0);
        ((GeneralPath) shape).curveTo(770.0, 74.0, 770.0, 74.0, 770.0, 73.0);
        ((GeneralPath) shape).curveTo(774.0, 73.0, 779.0, 73.0, 784.0, 74.0);
        ((GeneralPath) shape).curveTo(786.0, 77.0, 785.0, 79.0, 785.0, 83.0);
        ((GeneralPath) shape).curveTo(780.0, 86.0, 775.0, 89.0, 770.0, 92.0);
        ((GeneralPath) shape).curveTo(775.0, 92.0, 778.0, 88.0, 783.0, 88.0);
        ((GeneralPath) shape).curveTo(783.0, 89.0, 783.0, 90.0, 784.0, 91.0);
        ((GeneralPath) shape).curveTo(785.0, 91.0, 785.0, 91.0, 786.0, 91.0);
        ((GeneralPath) shape).curveTo(786.0, 90.0, 786.0, 89.0, 786.0, 88.0);
        ((GeneralPath) shape).curveTo(791.0, 89.0, 791.0, 89.0, 793.0, 91.0);
        ((GeneralPath) shape).curveTo(795.0, 85.0, 802.0, 87.0, 807.0, 87.0);
        ((GeneralPath) shape).curveTo(807.0, 88.0, 807.0, 89.0, 808.0, 90.0);
        ((GeneralPath) shape).curveTo(810.0, 91.0, 812.0, 92.0, 814.0, 92.0);
        ((GeneralPath) shape).curveTo(815.0, 98.0, 816.0, 99.0, 816.0, 104.0);
        ((GeneralPath) shape).curveTo(811.0, 110.0, 810.0, 116.0, 808.0, 123.0);
        ((GeneralPath) shape).curveTo(800.0, 123.0, 793.0, 123.0, 785.0, 125.0);
        ((GeneralPath) shape).curveTo(785.0, 126.0, 786.0, 127.0, 786.0, 128.0);
        ((GeneralPath) shape).curveTo(787.0, 129.0, 788.0, 129.0, 789.0, 129.0);
        ((GeneralPath) shape).curveTo(789.0, 130.0, 789.0, 131.0, 789.0, 132.0);
        ((GeneralPath) shape).curveTo(791.0, 133.0, 794.0, 134.0, 797.0, 134.0);
        ((GeneralPath) shape).curveTo(797.0, 135.0, 797.0, 136.0, 797.0, 137.0);
        ((GeneralPath) shape).curveTo(796.0, 138.0, 794.0, 139.0, 793.0, 140.0);
        ((GeneralPath) shape).curveTo(796.0, 148.0, 796.0, 158.0, 797.0, 166.0);
        ((GeneralPath) shape).curveTo(794.0, 169.0, 794.0, 169.0, 789.0, 172.0);
        ((GeneralPath) shape).curveTo(781.0, 183.0, 775.0, 207.0, 786.0, 217.0);
        ((GeneralPath) shape).curveTo(786.0, 221.0, 785.0, 224.0, 787.0, 228.0);
        ((GeneralPath) shape).curveTo(786.0, 229.0, 786.0, 230.0, 786.0, 232.0);
        ((GeneralPath) shape).curveTo(791.0, 238.0, 791.0, 243.0, 794.0, 250.0);
        ((GeneralPath) shape).curveTo(797.0, 250.0, 799.0, 251.0, 802.0, 251.0);
        ((GeneralPath) shape).curveTo(802.0, 254.0, 802.0, 257.0, 802.0, 260.0);
        ((GeneralPath) shape).curveTo(788.0, 263.0, 770.0, 257.0, 758.0, 250.0);
        ((GeneralPath) shape).closePath();
        ((GeneralPath) shape).moveTo(747.0, 54.0);
        ((GeneralPath) shape).curveTo(748.0, 54.0, 749.0, 54.0, 750.0, 54.0);
        ((GeneralPath) shape).curveTo(751.0, 58.0, 751.0, 58.0, 752.0, 59.0);
        ((GeneralPath) shape).curveTo(753.0, 59.0, 753.0, 59.0, 754.0, 58.0);
        ((GeneralPath) shape).curveTo(754.0, 60.0, 755.0, 63.0, 756.0, 65.0);
        ((GeneralPath) shape).curveTo(754.0, 65.0, 752.0, 65.0, 750.0, 65.0);
        ((GeneralPath) shape).curveTo(749.0, 64.0, 749.0, 64.0, 747.0, 54.0);
        ((GeneralPath) shape).closePath();
        ((GeneralPath) shape).moveTo(747.0, 54.0);
        ((GeneralPath) shape).curveTo(745.0, 57.0, 745.0, 57.0, 744.0, 62.0);
        ((GeneralPath) shape).curveTo(734.0, 61.0, 734.0, 61.0, 729.0, 59.0);
        ((GeneralPath) shape).curveTo(730.0, 47.0, 737.0, 51.0, 747.0, 51.0);
        ((GeneralPath) shape).curveTo(747.0, 52.0, 747.0, 53.0, 747.0, 54.0);
        ((GeneralPath) shape).closePath();
        ((GeneralPath) shape).moveTo(725.0, 53.0);
        ((GeneralPath) shape).curveTo(725.0, 54.0, 726.0, 55.0, 726.0, 57.0);
        ((GeneralPath) shape).curveTo(722.0, 57.0, 721.0, 59.0, 718.0, 59.0);
        ((GeneralPath) shape).curveTo(717.0, 57.0, 717.0, 57.0, 718.0, 53.0);
        ((GeneralPath) shape).curveTo(721.0, 53.0, 723.0, 53.0, 725.0, 53.0);
        ((GeneralPath) shape).closePath();
        ((GeneralPath) shape).moveTo(725.0, 53.0);
        ((GeneralPath) shape).curveTo(721.0, 51.0, 721.0, 51.0, 720.0, 49.0);
        ((GeneralPath) shape).curveTo(721.0, 48.0, 721.0, 46.0, 722.0, 45.0);
        ((GeneralPath) shape).curveTo(728.0, 44.0, 729.0, 44.0, 734.0, 48.0);
        ((GeneralPath) shape).curveTo(731.0, 50.0, 728.0, 51.0, 725.0, 53.0);
        ((GeneralPath) shape).closePath();

        //g.setPaint(new Color(0xBDDB8C));
        continent = "asia";
        name = "Siberia";
        //g.fill(shape); 
        Territories.add(new Territory(name, continent, shape));
        //g.setPaint(new Color(0x9CC35A));
        //g.draw(shape);

        // _0_1_2_10
        shape = new GeneralPath();
        ((GeneralPath) shape).moveTo(720.0, 239.0);
        ((GeneralPath) shape).curveTo(715.0, 232.0, 717.0, 222.0, 705.0, 223.0);
        ((GeneralPath) shape).curveTo(702.0, 219.0, 691.0, 205.0, 687.0, 204.0);
        ((GeneralPath) shape).curveTo(681.0, 193.0, 670.0, 197.0, 660.0, 197.0);
        ((GeneralPath) shape).curveTo(659.0, 195.0, 659.0, 193.0, 658.0, 192.0);
        ((GeneralPath) shape).curveTo(657.0, 191.0, 655.0, 191.0, 654.0, 191.0);
        ((GeneralPath) shape).curveTo(653.0, 175.0, 654.0, 158.0, 652.0, 141.0);
        ((GeneralPath) shape).curveTo(646.0, 131.0, 652.0, 127.0, 659.0, 119.0);
        ((GeneralPath) shape).curveTo(659.0, 114.0, 659.0, 110.0, 660.0, 106.0);
        ((GeneralPath) shape).curveTo(663.0, 102.0, 663.0, 96.0, 667.0, 92.0);
        ((GeneralPath) shape).curveTo(671.0, 95.0, 675.0, 97.0, 679.0, 99.0);
        ((GeneralPath) shape).curveTo(675.0, 107.0, 672.0, 111.0, 680.0, 116.0);
        ((GeneralPath) shape).curveTo(680.0, 121.0, 680.0, 126.0, 679.0, 131.0);
        ((GeneralPath) shape).curveTo(676.0, 133.0, 673.0, 135.0, 670.0, 137.0);
        ((GeneralPath) shape).curveTo(676.0, 137.0, 676.0, 137.0, 683.0, 135.0);
        ((GeneralPath) shape).curveTo(685.0, 131.0, 685.0, 131.0, 685.0, 124.0);
        ((GeneralPath) shape).curveTo(686.0, 124.0, 688.0, 124.0, 689.0, 124.0);
        ((GeneralPath) shape).curveTo(690.0, 125.0, 691.0, 126.0, 692.0, 127.0);
        ((GeneralPath) shape).curveTo(693.0, 129.0, 693.0, 129.0, 692.0, 131.0);
        ((GeneralPath) shape).curveTo(694.0, 131.0, 696.0, 132.0, 698.0, 132.0);
        ((GeneralPath) shape).curveTo(699.0, 139.0, 699.0, 139.0, 701.0, 145.0);
        ((GeneralPath) shape).curveTo(701.0, 145.0, 702.0, 144.0, 702.0, 144.0);
        ((GeneralPath) shape).curveTo(706.0, 150.0, 706.0, 152.0, 707.0, 159.0);
        ((GeneralPath) shape).curveTo(711.0, 160.0, 712.0, 165.0, 715.0, 169.0);
        ((GeneralPath) shape).curveTo(717.0, 182.0, 721.0, 195.0, 733.0, 200.0);
        ((GeneralPath) shape).curveTo(735.0, 206.0, 740.0, 210.0, 746.0, 214.0);
        ((GeneralPath) shape).curveTo(746.0, 217.0, 745.0, 218.0, 744.0, 223.0);
        ((GeneralPath) shape).curveTo(759.0, 226.0, 752.0, 238.0, 758.0, 250.0);
        ((GeneralPath) shape).curveTo(747.0, 258.0, 730.0, 242.0, 720.0, 239.0);
        ((GeneralPath) shape).closePath();

        //g.setPaint(new Color(0xBDDB8C));
        continent = "asia";
        name = "Ural";
        //g.fill(shape); 
        Territories.add(new Territory(name, continent, shape));
        //g.setPaint(new Color(0x9CC35A));
        //g.draw(shape);

        // _0_1_2_11
        shape = new GeneralPath();
        ((GeneralPath) shape).moveTo(797.0, 166.0);
        ((GeneralPath) shape).curveTo(796.0, 158.0, 796.0, 148.0, 793.0, 140.0);
        ((GeneralPath) shape).curveTo(794.0, 139.0, 796.0, 138.0, 797.0, 137.0);
        ((GeneralPath) shape).curveTo(797.0, 136.0, 797.0, 135.0, 797.0, 134.0);
        ((GeneralPath) shape).curveTo(794.0, 134.0, 791.0, 133.0, 789.0, 132.0);
        ((GeneralPath) shape).curveTo(789.0, 131.0, 789.0, 130.0, 789.0, 129.0);
        ((GeneralPath) shape).curveTo(788.0, 129.0, 787.0, 129.0, 786.0, 128.0);
        ((GeneralPath) shape).curveTo(786.0, 127.0, 785.0, 126.0, 785.0, 125.0);
        ((GeneralPath) shape).curveTo(793.0, 123.0, 800.0, 123.0, 808.0, 123.0);
        ((GeneralPath) shape).curveTo(810.0, 116.0, 811.0, 110.0, 816.0, 104.0);
        ((GeneralPath) shape).curveTo(816.0, 99.0, 815.0, 98.0, 814.0, 92.0);
        ((GeneralPath) shape).curveTo(815.0, 92.0, 816.0, 91.0, 817.0, 90.0);
        ((GeneralPath) shape).curveTo(816.0, 90.0, 814.0, 90.0, 813.0, 90.0);
        ((GeneralPath) shape).curveTo(813.0, 89.0, 813.0, 88.0, 813.0, 87.0);
        ((GeneralPath) shape).curveTo(820.0, 87.0, 832.0, 83.0, 835.0, 91.0);
        ((GeneralPath) shape).curveTo(834.0, 92.0, 833.0, 92.0, 832.0, 92.0);
        ((GeneralPath) shape).curveTo(833.0, 94.0, 833.0, 95.0, 833.0, 96.0);
        ((GeneralPath) shape).curveTo(838.0, 96.0, 841.0, 100.0, 846.0, 100.0);
        ((GeneralPath) shape).curveTo(847.0, 99.0, 848.0, 97.0, 849.0, 95.0);
        ((GeneralPath) shape).curveTo(853.0, 98.0, 857.0, 94.0, 859.0, 97.0);
        ((GeneralPath) shape).curveTo(862.0, 97.0, 864.0, 96.0, 867.0, 96.0);
        ((GeneralPath) shape).curveTo(865.0, 95.0, 864.0, 94.0, 862.0, 94.0);
        ((GeneralPath) shape).curveTo(862.0, 92.0, 862.0, 90.0, 861.0, 89.0);
        ((GeneralPath) shape).curveTo(864.0, 89.0, 867.0, 89.0, 869.0, 88.0);
        ((GeneralPath) shape).curveTo(869.0, 89.0, 869.0, 90.0, 869.0, 91.0);
        ((GeneralPath) shape).curveTo(873.0, 89.0, 873.0, 89.0, 881.0, 88.0);
        ((GeneralPath) shape).curveTo(881.0, 89.0, 881.0, 90.0, 881.0, 91.0);
        ((GeneralPath) shape).curveTo(878.0, 91.0, 878.0, 91.0, 878.0, 92.0);
        ((GeneralPath) shape).curveTo(893.0, 94.0, 908.0, 96.0, 922.0, 100.0);
        ((GeneralPath) shape).curveTo(922.0, 100.0, 921.0, 101.0, 921.0, 101.0);
        ((GeneralPath) shape).curveTo(922.0, 102.0, 924.0, 102.0, 926.0, 103.0);
        ((GeneralPath) shape).curveTo(926.0, 104.0, 926.0, 105.0, 926.0, 106.0);
        ((GeneralPath) shape).curveTo(925.0, 107.0, 924.0, 109.0, 923.0, 111.0);
        ((GeneralPath) shape).curveTo(916.0, 112.0, 911.0, 116.0, 904.0, 119.0);
        ((GeneralPath) shape).curveTo(904.0, 122.0, 903.0, 126.0, 903.0, 129.0);
        ((GeneralPath) shape).curveTo(905.0, 130.0, 908.0, 130.0, 911.0, 131.0);
        ((GeneralPath) shape).curveTo(911.0, 133.0, 911.0, 136.0, 911.0, 139.0);
        ((GeneralPath) shape).curveTo(909.0, 139.0, 908.0, 139.0, 907.0, 139.0);
        ((GeneralPath) shape).curveTo(906.0, 141.0, 905.0, 143.0, 904.0, 146.0);
        ((GeneralPath) shape).curveTo(902.0, 146.0, 900.0, 147.0, 898.0, 148.0);
        ((GeneralPath) shape).curveTo(897.0, 147.0, 897.0, 146.0, 897.0, 145.0);
        ((GeneralPath) shape).curveTo(895.0, 144.0, 893.0, 144.0, 891.0, 143.0);
        ((GeneralPath) shape).curveTo(890.0, 141.0, 890.0, 139.0, 889.0, 138.0);
        ((GeneralPath) shape).curveTo(886.0, 138.0, 884.0, 139.0, 881.0, 140.0);
        ((GeneralPath) shape).curveTo(881.0, 141.0, 880.0, 142.0, 880.0, 143.0);
        ((GeneralPath) shape).curveTo(878.0, 143.0, 876.0, 144.0, 873.0, 144.0);
        ((GeneralPath) shape).curveTo(871.0, 155.0, 862.0, 157.0, 859.0, 168.0);
        ((GeneralPath) shape).curveTo(854.0, 165.0, 853.0, 165.0, 851.0, 159.0);
        ((GeneralPath) shape).curveTo(848.0, 159.0, 845.0, 159.0, 843.0, 158.0);
        ((GeneralPath) shape).curveTo(842.0, 157.0, 842.0, 156.0, 842.0, 156.0);
        ((GeneralPath) shape).curveTo(823.0, 155.0, 821.0, 157.0, 813.0, 157.0);
        ((GeneralPath) shape).curveTo(811.0, 159.0, 810.0, 162.0, 808.0, 164.0);
        ((GeneralPath) shape).curveTo(804.0, 165.0, 800.0, 166.0, 797.0, 166.0);
        ((GeneralPath) shape).closePath();
        ((GeneralPath) shape).moveTo(857.0, 87.0);
        ((GeneralPath) shape).curveTo(857.0, 86.0, 858.0, 84.0, 859.0, 83.0);
        ((GeneralPath) shape).curveTo(867.0, 83.0, 867.0, 83.0, 868.0, 84.0);
        ((GeneralPath) shape).curveTo(863.0, 85.0, 862.0, 86.0, 857.0, 87.0);
        ((GeneralPath) shape).closePath();
        ((GeneralPath) shape).moveTo(857.0, 77.0);
        ((GeneralPath) shape).curveTo(855.0, 84.0, 846.0, 79.0, 842.0, 77.0);
        ((GeneralPath) shape).curveTo(842.0, 76.0, 842.0, 75.0, 842.0, 74.0);
        ((GeneralPath) shape).curveTo(844.0, 74.0, 845.0, 74.0, 847.0, 74.0);
        ((GeneralPath) shape).curveTo(847.0, 73.0, 847.0, 72.0, 848.0, 71.0);
        ((GeneralPath) shape).curveTo(849.0, 72.0, 850.0, 72.0, 851.0, 72.0);
        ((GeneralPath) shape).curveTo(851.0, 73.0, 851.0, 74.0, 852.0, 75.0);
        ((GeneralPath) shape).curveTo(853.0, 76.0, 855.0, 76.0, 857.0, 77.0);
        ((GeneralPath) shape).closePath();
        ((GeneralPath) shape).moveTo(862.0, 77.0);
        ((GeneralPath) shape).curveTo(862.0, 75.0, 862.0, 74.0, 862.0, 73.0);
        ((GeneralPath) shape).curveTo(866.0, 73.0, 866.0, 73.0, 872.0, 77.0);
        ((GeneralPath) shape).curveTo(869.0, 77.0, 865.0, 77.0, 862.0, 77.0);
        ((GeneralPath) shape).closePath();

        //g.setPaint(new Color(0xBDDB8C));
        continent = "asia";
        name = "Yakutsk";
        //g.fill(shape); 
        Territories.add(new Territory(name, continent, shape));
        //g.setPaint(new Color(0x9CC35A));
        //g.draw(shape);

        // _0_1_3

        // _0_1_3_0
        shape = new GeneralPath();
        ((GeneralPath) shape).moveTo(875.0, 600.0);
        ((GeneralPath) shape).curveTo(875.0, 582.0, 875.0, 565.0, 875.0, 548.0);
        ((GeneralPath) shape).curveTo(861.0, 548.0, 847.0, 548.0, 834.0, 548.0);
        ((GeneralPath) shape).curveTo(833.0, 535.0, 832.0, 523.0, 831.0, 510.0);
        ((GeneralPath) shape).curveTo(832.0, 510.0, 833.0, 509.0, 833.0, 509.0);
        ((GeneralPath) shape).curveTo(833.0, 501.0, 839.0, 500.0, 845.0, 499.0);
        ((GeneralPath) shape).curveTo(845.0, 498.0, 845.0, 497.0, 845.0, 495.0);
        ((GeneralPath) shape).curveTo(846.0, 495.0, 847.0, 495.0, 848.0, 495.0);
        ((GeneralPath) shape).curveTo(848.0, 497.0, 849.0, 498.0, 850.0, 499.0);
        ((GeneralPath) shape).curveTo(851.0, 498.0, 851.0, 498.0, 862.0, 499.0);
        ((GeneralPath) shape).curveTo(861.0, 503.0, 859.0, 503.0, 857.0, 505.0);
        ((GeneralPath) shape).curveTo(857.0, 506.0, 857.0, 508.0, 857.0, 510.0);
        ((GeneralPath) shape).curveTo(864.0, 513.0, 868.0, 516.0, 875.0, 515.0);
        ((GeneralPath) shape).curveTo(877.0, 511.0, 877.0, 502.0, 879.0, 494.0);
        ((GeneralPath) shape).curveTo(880.0, 493.0, 881.0, 493.0, 882.0, 493.0);
        ((GeneralPath) shape).curveTo(883.0, 499.0, 884.0, 503.0, 888.0, 507.0);
        ((GeneralPath) shape).curveTo(888.0, 507.0, 889.0, 506.0, 889.0, 506.0);
        ((GeneralPath) shape).curveTo(894.0, 514.0, 894.0, 524.0, 904.0, 527.0);
        ((GeneralPath) shape).curveTo(904.0, 528.0, 904.0, 530.0, 904.0, 531.0);
        ((GeneralPath) shape).curveTo(905.0, 531.0, 906.0, 532.0, 907.0, 532.0);
        ((GeneralPath) shape).curveTo(907.0, 533.0, 908.0, 534.0, 908.0, 535.0);
        ((GeneralPath) shape).curveTo(940.0, 543.0, 914.0, 579.0, 911.0, 597.0);
        ((GeneralPath) shape).curveTo(903.0, 599.0, 897.0, 602.0, 889.0, 603.0);
        ((GeneralPath) shape).curveTo(888.0, 602.0, 887.0, 601.0, 886.0, 600.0);
        ((GeneralPath) shape).curveTo(884.0, 603.0, 884.0, 605.0, 886.0, 608.0);
        ((GeneralPath) shape).curveTo(889.0, 608.0, 893.0, 609.0, 896.0, 609.0);
        ((GeneralPath) shape).curveTo(894.0, 617.0, 893.0, 619.0, 885.0, 621.0);
        ((GeneralPath) shape).curveTo(881.0, 612.0, 884.0, 605.0, 875.0, 600.0);
        ((GeneralPath) shape).closePath();
        ((GeneralPath) shape).moveTo(948.0, 594.0);
        ((GeneralPath) shape).curveTo(940.0, 584.0, 929.0, 589.0, 937.0, 573.0);
        ((GeneralPath) shape).curveTo(944.0, 573.0, 949.0, 567.0, 950.0, 560.0);
        ((GeneralPath) shape).curveTo(952.0, 560.0, 954.0, 559.0, 956.0, 559.0);
        ((GeneralPath) shape).curveTo(957.0, 555.0, 959.0, 552.0, 960.0, 548.0);
        ((GeneralPath) shape).curveTo(961.0, 548.0, 962.0, 548.0, 963.0, 548.0);
        ((GeneralPath) shape).curveTo(963.0, 550.0, 964.0, 552.0, 964.0, 553.0);
        ((GeneralPath) shape).curveTo(968.0, 554.0, 968.0, 554.0, 969.0, 556.0);
        ((GeneralPath) shape).curveTo(969.0, 557.0, 968.0, 558.0, 968.0, 559.0);
        ((GeneralPath) shape).curveTo(969.0, 559.0, 970.0, 559.0, 971.0, 559.0);
        ((GeneralPath) shape).curveTo(969.0, 561.0, 969.0, 561.0, 962.0, 579.0);
        ((GeneralPath) shape).curveTo(961.0, 579.0, 960.0, 579.0, 959.0, 579.0);
        ((GeneralPath) shape).curveTo(956.0, 585.0, 954.0, 591.0, 948.0, 594.0);
        ((GeneralPath) shape).closePath();
        ((GeneralPath) shape).moveTo(972.0, 556.0);
        ((GeneralPath) shape).curveTo(971.0, 548.0, 970.0, 547.0, 965.0, 542.0);
        ((GeneralPath) shape).curveTo(969.0, 535.0, 964.0, 529.0, 964.0, 522.0);
        ((GeneralPath) shape).curveTo(967.0, 525.0, 967.0, 529.0, 970.0, 532.0);
        ((GeneralPath) shape).curveTo(970.0, 532.0, 971.0, 531.0, 971.0, 531.0);
        ((GeneralPath) shape).curveTo(972.0, 532.0, 973.0, 534.0, 974.0, 535.0);
        ((GeneralPath) shape).curveTo(976.0, 535.0, 979.0, 536.0, 981.0, 536.0);
        ((GeneralPath) shape).curveTo(981.0, 535.0, 982.0, 535.0, 982.0, 534.0);
        ((GeneralPath) shape).curveTo(983.0, 536.0, 984.0, 538.0, 985.0, 540.0);
        ((GeneralPath) shape).curveTo(983.0, 547.0, 983.0, 547.0, 978.0, 555.0);
        ((GeneralPath) shape).curveTo(976.0, 555.0, 974.0, 556.0, 972.0, 556.0);
        ((GeneralPath) shape).closePath();

        //g.setPaint(new Color(0xE78A94));
        continent = "australia";
        name = "Eastern Austrailia";
        //g.fill(shape); 
        Territories.add(new Territory(name, continent, shape));
        //g.setPaint(new Color(0xD65163));
        //g.draw(shape);

        // _0_1_3_1
        shape = new GeneralPath();
        ((GeneralPath) shape).moveTo(936.0, 485.0);
        ((GeneralPath) shape).curveTo(934.0, 484.0, 931.0, 483.0, 928.0, 482.0);
        ((GeneralPath) shape).curveTo(926.0, 479.0, 926.0, 477.0, 922.0, 476.0);
        ((GeneralPath) shape).curveTo(922.0, 475.0, 922.0, 474.0, 922.0, 473.0);
        ((GeneralPath) shape).curveTo(921.0, 473.0, 920.0, 473.0, 919.0, 473.0);
        ((GeneralPath) shape).curveTo(918.0, 481.0, 907.0, 475.0, 901.0, 474.0);
        ((GeneralPath) shape).curveTo(902.0, 472.0, 903.0, 470.0, 904.0, 468.0);
        ((GeneralPath) shape).curveTo(903.0, 467.0, 902.0, 467.0, 901.0, 467.0);
        ((GeneralPath) shape).curveTo(901.0, 466.0, 901.0, 465.0, 900.0, 464.0);
        ((GeneralPath) shape).curveTo(898.0, 463.0, 896.0, 462.0, 894.0, 462.0);
        ((GeneralPath) shape).curveTo(894.0, 461.0, 895.0, 461.0, 895.0, 460.0);
        ((GeneralPath) shape).curveTo(894.0, 460.0, 893.0, 460.0, 891.0, 460.0);
        ((GeneralPath) shape).curveTo(891.0, 461.0, 891.0, 461.0, 891.0, 462.0);
        ((GeneralPath) shape).curveTo(890.0, 462.0, 889.0, 462.0, 888.0, 461.0);
        ((GeneralPath) shape).curveTo(888.0, 460.0, 888.0, 458.0, 887.0, 457.0);
        ((GeneralPath) shape).curveTo(890.0, 457.0, 890.0, 457.0, 890.0, 456.0);
        ((GeneralPath) shape).curveTo(889.0, 456.0, 887.0, 456.0, 886.0, 456.0);
        ((GeneralPath) shape).curveTo(886.0, 454.0, 886.0, 453.0, 886.0, 452.0);
        ((GeneralPath) shape).curveTo(885.0, 452.0, 884.0, 451.0, 884.0, 451.0);
        ((GeneralPath) shape).curveTo(888.0, 447.0, 893.0, 447.0, 898.0, 449.0);
        ((GeneralPath) shape).curveTo(897.0, 451.0, 896.0, 453.0, 895.0, 455.0);
        ((GeneralPath) shape).curveTo(896.0, 455.0, 897.0, 455.0, 898.0, 456.0);
        ((GeneralPath) shape).curveTo(898.0, 457.0, 898.0, 457.0, 898.0, 458.0);
        ((GeneralPath) shape).curveTo(900.0, 457.0, 902.0, 455.0, 904.0, 454.0);
        ((GeneralPath) shape).curveTo(904.0, 453.0, 903.0, 453.0, 903.0, 452.0);
        ((GeneralPath) shape).curveTo(905.0, 450.0, 924.0, 460.0, 927.0, 462.0);
        ((GeneralPath) shape).curveTo(928.0, 464.0, 929.0, 466.0, 930.0, 468.0);
        ((GeneralPath) shape).curveTo(931.0, 468.0, 932.0, 468.0, 933.0, 469.0);
        ((GeneralPath) shape).curveTo(933.0, 470.0, 933.0, 471.0, 934.0, 472.0);
        ((GeneralPath) shape).curveTo(932.0, 472.0, 931.0, 472.0, 930.0, 472.0);
        ((GeneralPath) shape).curveTo(931.0, 474.0, 931.0, 475.0, 932.0, 477.0);
        ((GeneralPath) shape).curveTo(933.0, 477.0, 934.0, 477.0, 935.0, 477.0);
        ((GeneralPath) shape).curveTo(935.0, 478.0, 935.0, 480.0, 935.0, 481.0);
        ((GeneralPath) shape).curveTo(936.0, 482.0, 938.0, 482.0, 940.0, 483.0);
        ((GeneralPath) shape).curveTo(939.0, 483.0, 937.0, 484.0, 936.0, 485.0);
        ((GeneralPath) shape).closePath();
        ((GeneralPath) shape).moveTo(955.0, 461.0);
        ((GeneralPath) shape).curveTo(955.0, 462.0, 955.0, 463.0, 954.0, 464.0);
        ((GeneralPath) shape).curveTo(946.0, 467.0, 946.0, 467.0, 935.0, 469.0);
        ((GeneralPath) shape).curveTo(934.0, 468.0, 934.0, 467.0, 934.0, 466.0);
        ((GeneralPath) shape).curveTo(941.0, 464.0, 948.0, 463.0, 955.0, 461.0);
        ((GeneralPath) shape).closePath();
        ((GeneralPath) shape).moveTo(955.0, 461.0);
        ((GeneralPath) shape).curveTo(951.0, 458.0, 951.0, 458.0, 948.0, 457.0);
        ((GeneralPath) shape).curveTo(948.0, 456.0, 948.0, 455.0, 948.0, 454.0);
        ((GeneralPath) shape).curveTo(951.0, 455.0, 954.0, 456.0, 958.0, 457.0);
        ((GeneralPath) shape).curveTo(958.0, 458.0, 958.0, 459.0, 959.0, 460.0);
        ((GeneralPath) shape).curveTo(958.0, 460.0, 956.0, 461.0, 955.0, 461.0);
        ((GeneralPath) shape).closePath();

        //g.setPaint(new Color(0xE78A94));
        continent = "australia";
        name = "New Guniea";
        //g.fill(shape); 
        Territories.add(new Territory(name, continent, shape));
        //g.setPaint(new Color(0xD65163));
        //g.draw(shape);

        // _0_1_3_2
        shape = new GeneralPath();
        ((GeneralPath) shape).moveTo(831.0, 510.0);
        ((GeneralPath) shape).curveTo(832.0, 523.0, 833.0, 535.0, 834.0, 548.0);
        ((GeneralPath) shape).curveTo(847.0, 548.0, 861.0, 548.0, 875.0, 548.0);
        ((GeneralPath) shape).curveTo(875.0, 565.0, 875.0, 582.0, 875.0, 600.0);
        ((GeneralPath) shape).curveTo(873.0, 599.0, 872.0, 599.0, 870.0, 599.0);
        ((GeneralPath) shape).curveTo(870.0, 596.0, 869.0, 593.0, 868.0, 590.0);
        ((GeneralPath) shape).curveTo(864.0, 590.0, 864.0, 590.0, 863.0, 588.0);
        ((GeneralPath) shape).curveTo(864.0, 588.0, 865.0, 587.0, 866.0, 587.0);
        ((GeneralPath) shape).curveTo(866.0, 586.0, 866.0, 585.0, 866.0, 584.0);
        ((GeneralPath) shape).curveTo(865.0, 586.0, 865.0, 586.0, 861.0, 586.0);
        ((GeneralPath) shape).curveTo(862.0, 585.0, 863.0, 583.0, 864.0, 582.0);
        ((GeneralPath) shape).curveTo(862.0, 582.0, 859.0, 583.0, 856.0, 584.0);
        ((GeneralPath) shape).curveTo(854.0, 580.0, 852.0, 577.0, 851.0, 574.0);
        ((GeneralPath) shape).curveTo(839.0, 572.0, 826.0, 573.0, 819.0, 583.0);
        ((GeneralPath) shape).curveTo(814.0, 583.0, 811.0, 582.0, 806.0, 582.0);
        ((GeneralPath) shape).curveTo(795.0, 588.0, 787.0, 592.0, 776.0, 587.0);
        ((GeneralPath) shape).curveTo(778.0, 580.0, 778.0, 576.0, 777.0, 569.0);
        ((GeneralPath) shape).curveTo(772.0, 555.0, 772.0, 555.0, 772.0, 552.0);
        ((GeneralPath) shape).curveTo(773.0, 552.0, 773.0, 552.0, 774.0, 552.0);
        ((GeneralPath) shape).curveTo(772.0, 547.0, 773.0, 542.0, 774.0, 537.0);
        ((GeneralPath) shape).curveTo(775.0, 537.0, 777.0, 537.0, 778.0, 537.0);
        ((GeneralPath) shape).curveTo(778.0, 536.0, 778.0, 536.0, 778.0, 535.0);
        ((GeneralPath) shape).curveTo(785.0, 531.0, 792.0, 529.0, 799.0, 526.0);
        ((GeneralPath) shape).curveTo(799.0, 525.0, 799.0, 524.0, 799.0, 523.0);
        ((GeneralPath) shape).curveTo(808.0, 520.0, 811.0, 514.0, 820.0, 511.0);
        ((GeneralPath) shape).curveTo(820.0, 510.0, 821.0, 509.0, 821.0, 507.0);
        ((GeneralPath) shape).curveTo(822.0, 508.0, 822.0, 508.0, 823.0, 509.0);
        ((GeneralPath) shape).curveTo(823.0, 508.0, 823.0, 507.0, 823.0, 506.0);
        ((GeneralPath) shape).curveTo(824.0, 506.0, 826.0, 505.0, 827.0, 505.0);
        ((GeneralPath) shape).curveTo(828.0, 506.0, 829.0, 507.0, 830.0, 508.0);
        ((GeneralPath) shape).curveTo(829.0, 508.0, 829.0, 509.0, 829.0, 509.0);
        ((GeneralPath) shape).curveTo(829.0, 509.0, 830.0, 510.0, 831.0, 510.0);
        ((GeneralPath) shape).closePath();

        //g.setPaint(new Color(0xE78A94));
        continent = "australia";
        name = "Western Austrailia";
        //g.fill(shape); 
        Territories.add(new Territory(name, continent, shape));
        //g.setPaint(new Color(0xD65163));
        //g.draw(shape);

        // _0_1_3_3
        shape = new GeneralPath();
        ((GeneralPath) shape).moveTo(838.0, 474.0);
        ((GeneralPath) shape).curveTo(838.0, 474.0, 839.0, 473.0, 840.0, 473.0);
        ((GeneralPath) shape).curveTo(843.0, 472.0, 843.0, 472.0, 846.0, 474.0);
        ((GeneralPath) shape).curveTo(843.0, 476.0, 839.0, 478.0, 835.0, 480.0);
        ((GeneralPath) shape).curveTo(835.0, 478.0, 835.0, 477.0, 835.0, 476.0);
        ((GeneralPath) shape).curveTo(836.0, 475.0, 837.0, 475.0, 838.0, 474.0);
        ((GeneralPath) shape).closePath();
        ((GeneralPath) shape).moveTo(822.0, 476.0);
        ((GeneralPath) shape).curveTo(822.0, 476.0, 822.0, 476.0, 822.0, 477.0);
        ((GeneralPath) shape).curveTo(820.0, 476.0, 818.0, 476.0, 816.0, 476.0);
        ((GeneralPath) shape).curveTo(816.0, 476.0, 816.0, 477.0, 816.0, 478.0);
        ((GeneralPath) shape).curveTo(806.0, 476.0, 806.0, 476.0, 786.0, 476.0);
        ((GeneralPath) shape).curveTo(786.0, 475.0, 786.0, 474.0, 786.0, 473.0);
        ((GeneralPath) shape).curveTo(784.0, 472.0, 781.0, 471.0, 779.0, 470.0);
        ((GeneralPath) shape).curveTo(779.0, 468.0, 779.0, 466.0, 779.0, 464.0);
        ((GeneralPath) shape).curveTo(777.0, 464.0, 776.0, 464.0, 775.0, 464.0);
        ((GeneralPath) shape).curveTo(772.0, 456.0, 769.0, 453.0, 767.0, 446.0);
        ((GeneralPath) shape).curveTo(766.0, 446.0, 765.0, 445.0, 765.0, 445.0);
        ((GeneralPath) shape).curveTo(764.0, 441.0, 764.0, 441.0, 761.0, 435.0);
        ((GeneralPath) shape).curveTo(760.0, 435.0, 759.0, 435.0, 758.0, 435.0);
        ((GeneralPath) shape).curveTo(758.0, 433.0, 757.0, 431.0, 757.0, 429.0);
        ((GeneralPath) shape).curveTo(762.0, 430.0, 762.0, 430.0, 770.0, 433.0);
        ((GeneralPath) shape).curveTo(772.0, 439.0, 775.0, 441.0, 777.0, 446.0);
        ((GeneralPath) shape).curveTo(778.0, 446.0, 779.0, 445.0, 780.0, 445.0);
        ((GeneralPath) shape).curveTo(781.0, 451.0, 782.0, 452.0, 788.0, 453.0);
        ((GeneralPath) shape).curveTo(788.0, 454.0, 788.0, 455.0, 788.0, 456.0);
        ((GeneralPath) shape).curveTo(787.0, 456.0, 786.0, 457.0, 785.0, 457.0);
        ((GeneralPath) shape).curveTo(786.0, 458.0, 786.0, 460.0, 787.0, 461.0);
        ((GeneralPath) shape).curveTo(787.0, 461.0, 788.0, 460.0, 788.0, 460.0);
        ((GeneralPath) shape).curveTo(790.0, 462.0, 788.0, 464.0, 792.0, 466.0);
        ((GeneralPath) shape).curveTo(792.0, 467.0, 792.0, 468.0, 792.0, 469.0);
        ((GeneralPath) shape).curveTo(792.0, 470.0, 793.0, 470.0, 794.0, 470.0);
        ((GeneralPath) shape).curveTo(794.0, 469.0, 794.0, 468.0, 794.0, 468.0);
        ((GeneralPath) shape).curveTo(803.0, 467.0, 810.0, 471.0, 820.0, 473.0);
        ((GeneralPath) shape).curveTo(820.0, 474.0, 820.0, 475.0, 820.0, 476.0);
        ((GeneralPath) shape).curveTo(820.0, 476.0, 821.0, 476.0, 822.0, 476.0);
        ((GeneralPath) shape).closePath();
        ((GeneralPath) shape).moveTo(822.0, 476.0);
        ((GeneralPath) shape).curveTo(825.0, 470.0, 835.0, 473.0, 840.0, 473.0);
        ((GeneralPath) shape).curveTo(839.0, 473.0, 838.0, 474.0, 838.0, 474.0);
        ((GeneralPath) shape).curveTo(836.0, 474.0, 835.0, 474.0, 834.0, 474.0);
        ((GeneralPath) shape).curveTo(834.0, 475.0, 834.0, 476.0, 834.0, 477.0);
        ((GeneralPath) shape).curveTo(830.0, 476.0, 826.0, 476.0, 822.0, 476.0);
        ((GeneralPath) shape).closePath();
        ((GeneralPath) shape).moveTo(821.0, 465.0);
        ((GeneralPath) shape).curveTo(822.0, 454.0, 825.0, 449.0, 831.0, 441.0);
        ((GeneralPath) shape).curveTo(836.0, 441.0, 841.0, 441.0, 846.0, 439.0);
        ((GeneralPath) shape).curveTo(846.0, 439.0, 846.0, 440.0, 846.0, 441.0);
        ((GeneralPath) shape).curveTo(842.0, 443.0, 838.0, 445.0, 833.0, 444.0);
        ((GeneralPath) shape).curveTo(833.0, 445.0, 833.0, 446.0, 832.0, 447.0);
        ((GeneralPath) shape).curveTo(835.0, 447.0, 838.0, 447.0, 840.0, 447.0);
        ((GeneralPath) shape).curveTo(839.0, 449.0, 839.0, 449.0, 834.0, 449.0);
        ((GeneralPath) shape).curveTo(834.0, 453.0, 834.0, 457.0, 834.0, 461.0);
        ((GeneralPath) shape).curveTo(832.0, 461.0, 830.0, 461.0, 829.0, 461.0);
        ((GeneralPath) shape).curveTo(829.0, 459.0, 829.0, 457.0, 829.0, 454.0);
        ((GeneralPath) shape).curveTo(828.0, 454.0, 828.0, 454.0, 827.0, 454.0);
        ((GeneralPath) shape).curveTo(826.0, 458.0, 826.0, 461.0, 825.0, 465.0);
        ((GeneralPath) shape).curveTo(823.0, 465.0, 822.0, 465.0, 821.0, 465.0);
        ((GeneralPath) shape).closePath();
        ((GeneralPath) shape).moveTo(802.0, 460.0);
        ((GeneralPath) shape).curveTo(800.0, 456.0, 798.0, 455.0, 799.0, 451.0);
        ((GeneralPath) shape).curveTo(798.0, 451.0, 797.0, 451.0, 797.0, 451.0);
        ((GeneralPath) shape).curveTo(796.0, 446.0, 797.0, 444.0, 799.0, 439.0);
        ((GeneralPath) shape).curveTo(801.0, 439.0, 803.0, 438.0, 806.0, 437.0);
        ((GeneralPath) shape).curveTo(806.0, 436.0, 806.0, 435.0, 806.0, 434.0);
        ((GeneralPath) shape).curveTo(809.0, 433.0, 812.0, 432.0, 814.0, 431.0);
        ((GeneralPath) shape).curveTo(815.0, 428.0, 816.0, 426.0, 817.0, 424.0);
        ((GeneralPath) shape).curveTo(818.0, 424.0, 819.0, 424.0, 820.0, 424.0);
        ((GeneralPath) shape).curveTo(820.0, 422.0, 820.0, 421.0, 821.0, 420.0);
        ((GeneralPath) shape).curveTo(825.0, 420.0, 826.0, 420.0, 830.0, 421.0);
        ((GeneralPath) shape).curveTo(830.0, 422.0, 830.0, 423.0, 830.0, 424.0);
        ((GeneralPath) shape).curveTo(829.0, 424.0, 828.0, 424.0, 827.0, 425.0);
        ((GeneralPath) shape).curveTo(828.0, 425.0, 828.0, 426.0, 829.0, 427.0);
        ((GeneralPath) shape).curveTo(826.0, 430.0, 823.0, 435.0, 827.0, 440.0);
        ((GeneralPath) shape).curveTo(820.0, 445.0, 819.0, 450.0, 816.0, 457.0);
        ((GeneralPath) shape).curveTo(813.0, 459.0, 813.0, 459.0, 802.0, 460.0);
        ((GeneralPath) shape).closePath();
        ((GeneralPath) shape).moveTo(841.0, 458.0);
        ((GeneralPath) shape).curveTo(841.0, 457.0, 841.0, 457.0, 841.0, 456.0);
        ((GeneralPath) shape).curveTo(848.0, 455.0, 852.0, 454.0, 858.0, 458.0);
        ((GeneralPath) shape).curveTo(852.0, 458.0, 847.0, 458.0, 841.0, 458.0);
        ((GeneralPath) shape).closePath();
        ((GeneralPath) shape).moveTo(849.0, 445.0);
        ((GeneralPath) shape).curveTo(849.0, 443.0, 849.0, 440.0, 849.0, 437.0);
        ((GeneralPath) shape).curveTo(850.0, 438.0, 851.0, 438.0, 852.0, 438.0);
        ((GeneralPath) shape).curveTo(852.0, 441.0, 853.0, 443.0, 853.0, 445.0);
        ((GeneralPath) shape).curveTo(852.0, 445.0, 850.0, 445.0, 849.0, 445.0);
        ((GeneralPath) shape).closePath();
        ((GeneralPath) shape).moveTo(875.0, 394.0);
        ((GeneralPath) shape).curveTo(875.0, 393.0, 875.0, 393.0, 876.0, 392.0);
        ((GeneralPath) shape).curveTo(876.0, 392.0, 877.0, 392.0, 878.0, 391.0);
        ((GeneralPath) shape).curveTo(878.0, 395.0, 878.0, 395.0, 876.0, 398.0);
        ((GeneralPath) shape).curveTo(875.0, 398.0, 873.0, 399.0, 872.0, 399.0);
        ((GeneralPath) shape).curveTo(873.0, 397.0, 874.0, 395.0, 875.0, 394.0);
        ((GeneralPath) shape).closePath();
        ((GeneralPath) shape).moveTo(853.0, 396.0);
        ((GeneralPath) shape).curveTo(854.0, 391.0, 861.0, 386.0, 865.0, 382.0);
        ((GeneralPath) shape).curveTo(865.0, 390.0, 861.0, 395.0, 853.0, 396.0);
        ((GeneralPath) shape).closePath();
        ((GeneralPath) shape).moveTo(876.0, 392.0);
        ((GeneralPath) shape).curveTo(875.0, 393.0, 875.0, 393.0, 875.0, 394.0);
        ((GeneralPath) shape).curveTo(874.0, 394.0, 873.0, 394.0, 872.0, 394.0);
        ((GeneralPath) shape).curveTo(872.0, 388.0, 869.0, 386.0, 868.0, 382.0);
        ((GeneralPath) shape).curveTo(872.0, 382.0, 876.0, 386.0, 880.0, 388.0);
        ((GeneralPath) shape).curveTo(878.0, 388.0, 877.0, 389.0, 876.0, 390.0);
        ((GeneralPath) shape).curveTo(876.0, 391.0, 876.0, 391.0, 876.0, 392.0);
        ((GeneralPath) shape).closePath();
        ((GeneralPath) shape).moveTo(881.0, 388.0);
        ((GeneralPath) shape).curveTo(881.0, 386.0, 880.0, 383.0, 880.0, 380.0);
        ((GeneralPath) shape).curveTo(877.0, 380.0, 875.0, 380.0, 872.0, 380.0);
        ((GeneralPath) shape).curveTo(871.0, 379.0, 871.0, 378.0, 870.0, 377.0);
        ((GeneralPath) shape).curveTo(870.0, 377.0, 869.0, 377.0, 868.0, 377.0);
        ((GeneralPath) shape).curveTo(866.0, 376.0, 865.0, 376.0, 864.0, 373.0);
        ((GeneralPath) shape).curveTo(866.0, 373.0, 867.0, 373.0, 868.0, 373.0);
        ((GeneralPath) shape).curveTo(868.0, 371.0, 868.0, 371.0, 866.0, 371.0);
        ((GeneralPath) shape).curveTo(865.0, 368.0, 865.0, 365.0, 865.0, 362.0);
        ((GeneralPath) shape).curveTo(866.0, 363.0, 867.0, 365.0, 868.0, 366.0);
        ((GeneralPath) shape).curveTo(866.0, 361.0, 866.0, 361.0, 867.0, 355.0);
        ((GeneralPath) shape).curveTo(870.0, 355.0, 873.0, 355.0, 876.0, 355.0);
        ((GeneralPath) shape).curveTo(876.0, 357.0, 875.0, 358.0, 875.0, 360.0);
        ((GeneralPath) shape).curveTo(876.0, 360.0, 876.0, 360.0, 877.0, 361.0);
        ((GeneralPath) shape).curveTo(877.0, 363.0, 876.0, 365.0, 875.0, 367.0);
        ((GeneralPath) shape).curveTo(875.0, 367.0, 874.0, 366.0, 874.0, 366.0);
        ((GeneralPath) shape).curveTo(874.0, 368.0, 874.0, 370.0, 875.0, 373.0);
        ((GeneralPath) shape).curveTo(877.0, 373.0, 879.0, 374.0, 881.0, 375.0);
        ((GeneralPath) shape).curveTo(883.0, 380.0, 884.0, 382.0, 884.0, 387.0);
        ((GeneralPath) shape).curveTo(883.0, 388.0, 882.0, 388.0, 881.0, 388.0);
        ((GeneralPath) shape).closePath();

        //g.setPaint(new Color(0xE78A94));
        continent = "australia";
        name = "Indonesia";
        //g.fill(shape); 
        Territories.add(new Territory(name, continent, shape));
        //g.setPaint(new Color(0xD65163));
        //g.draw(shape);

        // _0_1_4

        // _0_1_4_0
        shape = new GeneralPath();
        ((GeneralPath) shape).moveTo(455.0, 226.0);
        ((GeneralPath) shape).curveTo(448.0, 228.0, 432.0, 235.0, 425.0, 234.0);
        ((GeneralPath) shape).curveTo(425.0, 233.0, 424.0, 232.0, 424.0, 231.0);
        ((GeneralPath) shape).curveTo(428.0, 229.0, 432.0, 226.0, 436.0, 224.0);
        ((GeneralPath) shape).curveTo(434.0, 224.0, 432.0, 223.0, 430.0, 223.0);
        ((GeneralPath) shape).curveTo(432.0, 217.0, 432.0, 217.0, 433.0, 211.0);
        ((GeneralPath) shape).curveTo(434.0, 211.0, 436.0, 211.0, 438.0, 211.0);
        ((GeneralPath) shape).curveTo(438.0, 208.0, 437.0, 206.0, 439.0, 203.0);
        ((GeneralPath) shape).curveTo(438.0, 203.0, 437.0, 202.0, 436.0, 202.0);
        ((GeneralPath) shape).curveTo(436.0, 201.0, 436.0, 199.0, 436.0, 198.0);
        ((GeneralPath) shape).curveTo(435.0, 198.0, 434.0, 198.0, 433.0, 198.0);
        ((GeneralPath) shape).curveTo(433.0, 189.0, 435.0, 185.0, 436.0, 177.0);
        ((GeneralPath) shape).curveTo(441.0, 175.0, 441.0, 175.0, 444.0, 175.0);
        ((GeneralPath) shape).curveTo(445.0, 177.0, 445.0, 177.0, 444.0, 181.0);
        ((GeneralPath) shape).curveTo(446.0, 182.0, 448.0, 183.0, 450.0, 184.0);
        ((GeneralPath) shape).curveTo(442.0, 195.0, 450.0, 204.0, 452.0, 217.0);
        ((GeneralPath) shape).curveTo(453.0, 217.0, 454.0, 217.0, 455.0, 218.0);
        ((GeneralPath) shape).curveTo(455.0, 220.0, 455.0, 223.0, 455.0, 226.0);
        ((GeneralPath) shape).closePath();
        ((GeneralPath) shape).moveTo(415.0, 226.0);
        ((GeneralPath) shape).curveTo(414.0, 221.0, 416.0, 217.0, 415.0, 206.0);
        ((GeneralPath) shape).curveTo(416.0, 205.0, 417.0, 205.0, 419.0, 204.0);
        ((GeneralPath) shape).curveTo(418.0, 202.0, 418.0, 202.0, 419.0, 199.0);
        ((GeneralPath) shape).curveTo(424.0, 199.0, 427.0, 199.0, 432.0, 201.0);
        ((GeneralPath) shape).curveTo(432.0, 204.0, 432.0, 207.0, 432.0, 210.0);
        ((GeneralPath) shape).curveTo(431.0, 210.0, 430.0, 210.0, 429.0, 210.0);
        ((GeneralPath) shape).curveTo(428.0, 220.0, 426.0, 224.0, 415.0, 226.0);
        ((GeneralPath) shape).closePath();

        //g.setPaint(new Color(0xCEBADE));
        continent = "europe";
        name = "Great Britain";
        //g.fill(shape); 
        Territories.add(new Territory(name, continent, shape));
        //g.setPaint(new Color(0x9482AD));
        //g.draw(shape);

        // _0_1_4_1
        shape = new GeneralPath();
        ((GeneralPath) shape).moveTo(425.0, 156.0);
        ((GeneralPath) shape).curveTo(423.0, 155.0, 420.0, 154.0, 417.0, 154.0);
        ((GeneralPath) shape).curveTo(417.0, 152.0, 417.0, 151.0, 416.0, 149.0);
        ((GeneralPath) shape).curveTo(419.0, 149.0, 419.0, 149.0, 419.0, 148.0);
        ((GeneralPath) shape).curveTo(418.0, 148.0, 416.0, 148.0, 415.0, 148.0);
        ((GeneralPath) shape).curveTo(415.0, 147.0, 415.0, 146.0, 415.0, 145.0);
        ((GeneralPath) shape).curveTo(416.0, 145.0, 418.0, 145.0, 419.0, 145.0);
        ((GeneralPath) shape).curveTo(419.0, 145.0, 419.0, 144.0, 419.0, 144.0);
        ((GeneralPath) shape).curveTo(418.0, 144.0, 416.0, 144.0, 415.0, 144.0);
        ((GeneralPath) shape).curveTo(415.0, 143.0, 416.0, 142.0, 416.0, 141.0);
        ((GeneralPath) shape).curveTo(420.0, 139.0, 420.0, 139.0, 424.0, 140.0);
        ((GeneralPath) shape).curveTo(424.0, 140.0, 424.0, 141.0, 424.0, 142.0);
        ((GeneralPath) shape).curveTo(431.0, 142.0, 439.0, 141.0, 447.0, 141.0);
        ((GeneralPath) shape).curveTo(448.0, 142.0, 449.0, 142.0, 450.0, 143.0);
        ((GeneralPath) shape).curveTo(449.0, 144.0, 449.0, 144.0, 448.0, 145.0);
        ((GeneralPath) shape).curveTo(449.0, 145.0, 450.0, 145.0, 451.0, 145.0);
        ((GeneralPath) shape).curveTo(449.0, 157.0, 434.0, 155.0, 425.0, 156.0);
        ((GeneralPath) shape).closePath();

        //g.setPaint(new Color(0xCEBADE));
        continent = "europe";
        name = "Iceland";
        //g.fill(shape); 
        Territories.add(new Territory(name, continent, shape));
        //g.setPaint(new Color(0x9482AD));
        //g.draw(shape);

        // _0_1_4_2
        shape = new GeneralPath();
        ((GeneralPath) shape).moveTo(470.0, 242.0);
        ((GeneralPath) shape).curveTo(468.0, 239.0, 467.0, 238.0, 464.0, 238.0);
        ((GeneralPath) shape).curveTo(462.0, 233.0, 458.0, 231.0, 455.0, 227.0);
        ((GeneralPath) shape).curveTo(455.0, 227.0, 455.0, 226.0, 455.0, 226.0);
        ((GeneralPath) shape).curveTo(457.0, 223.0, 459.0, 220.0, 462.0, 219.0);
        ((GeneralPath) shape).curveTo(464.0, 211.0, 464.0, 211.0, 466.0, 210.0);
        ((GeneralPath) shape).curveTo(466.0, 210.0, 466.0, 211.0, 467.0, 211.0);
        ((GeneralPath) shape).curveTo(470.0, 207.0, 473.0, 205.0, 468.0, 201.0);
        ((GeneralPath) shape).curveTo(468.0, 197.0, 469.0, 193.0, 470.0, 189.0);
        ((GeneralPath) shape).curveTo(474.0, 187.0, 475.0, 186.0, 477.0, 182.0);
        ((GeneralPath) shape).curveTo(478.0, 188.0, 480.0, 197.0, 475.0, 201.0);
        ((GeneralPath) shape).curveTo(480.0, 204.0, 484.0, 205.0, 489.0, 206.0);
        ((GeneralPath) shape).curveTo(489.0, 205.0, 490.0, 204.0, 490.0, 203.0);
        ((GeneralPath) shape).curveTo(491.0, 204.0, 492.0, 205.0, 492.0, 206.0);
        ((GeneralPath) shape).curveTo(496.0, 202.0, 501.0, 202.0, 506.0, 201.0);
        ((GeneralPath) shape).curveTo(506.0, 202.0, 505.0, 203.0, 505.0, 204.0);
        ((GeneralPath) shape).curveTo(506.0, 204.0, 506.0, 204.0, 507.0, 205.0);
        ((GeneralPath) shape).curveTo(507.0, 204.0, 507.0, 203.0, 507.0, 202.0);
        ((GeneralPath) shape).curveTo(508.0, 202.0, 510.0, 201.0, 511.0, 201.0);
        ((GeneralPath) shape).curveTo(514.0, 203.0, 517.0, 205.0, 520.0, 207.0);
        ((GeneralPath) shape).curveTo(522.0, 215.0, 523.0, 221.0, 523.0, 230.0);
        ((GeneralPath) shape).curveTo(522.0, 230.0, 521.0, 230.0, 520.0, 230.0);
        ((GeneralPath) shape).curveTo(520.0, 232.0, 519.0, 233.0, 519.0, 235.0);
